<?xml version="1.0"?>
<opencv_storage>
<opencv_ml_svm>
  <format>3</format>
  <svmType>C_SVC</svmType>
  <kernel>
    <type>LINEAR</type></kernel>
  <C>1.</C>
  <term_criteria><epsilon>1.0000000000000000e-02</epsilon>
    <iterations>1000</iterations></term_criteria>
  <var_count>1600</var_count>
  <class_count>3</class_count>
  <class_labels type_id="opencv-matrix">
    <rows>3</rows>
    <cols>1</cols>
    <dt>i</dt>
    <data>
      1 2 3</data></class_labels>
  <sv_total>3</sv_total>
  <support_vectors>
    <_>
      3.67435496e-05 1.35542077e-05 1.35542077e-05 1.72339187e-05
      1.48908775e-05 1.18795306e-05 3.25753581e-06 3.25753581e-06
      3.25753581e-06 3.25753581e-06 3.25753581e-06 1.37995985e-05
      1.15548119e-05 2.59534172e-05 8.96050551e-06 8.20394507e-06
      1.57217473e-05 1.96178826e-05 4.23325946e-06 4.23325946e-06
      1.63232780e-05 -3.22222377e-06 3.79966150e-06 4.65937273e-06
      1.32955756e-05 1.64807298e-05 -1.56739334e-05 -1.89573402e-05
      -1.89573402e-05 -1.66143000e-05 -1.73429944e-05 -1.81794840e-05
      1.47772171e-05 3.22929895e-06 1.39426511e-05 1.39426511e-05
      1.68346778e-05 1.68346778e-05 5.53725249e-06 1.05488243e-06
      3.26425215e-05 1.27652447e-05 1.90221326e-05 1.33856192e-05
      1.41458158e-05 1.12715534e-05 3.25753581e-06 3.25753581e-06
      -6.38599431e-07 -6.38599431e-07 -6.38599431e-07 1.94260465e-05
      1.15548119e-05 7.47525155e-06 3.21239736e-06 2.81741286e-05
      2.91804990e-05 2.91804990e-05 -3.92572974e-06 -2.95947888e-08
      1.52910416e-05 -2.36251253e-06 4.65937273e-06 2.23809784e-05
      1.26978994e-05 1.26375135e-05 -1.41199725e-05 -1.35119963e-05
      -1.41199725e-05 -1.17769332e-05 -1.17769332e-05 -1.28176762e-05
      4.90392858e-06 1.62052152e-06 7.85956047e-07 1.39426511e-05
      2.01613366e-05 2.62079611e-05 1.09745051e-05 8.69185078e-06
      3.26425215e-05 1.27652447e-05 1.27652447e-05 1.82934382e-05
      7.00869896e-06 1.12715534e-05 3.25753581e-06 5.53508835e-06
      5.53508835e-06 5.53508835e-06 5.53508835e-06 4.77852745e-06
      1.59337367e-06 1.93040414e-05 3.22303777e-06 3.06581660e-06
      -2.87038620e-06 -6.34744083e-07 8.69013274e-06 -2.04442658e-05
      1.92445805e-06 -8.57801206e-06 -1.52101620e-05 -3.69180407e-06
      5.07541654e-06 -8.14166469e-06 -4.76828500e-05 -4.15466784e-05
      -1.54726058e-05 -4.64175100e-05 -4.21546538e-05 -4.21546538e-05
      -2.77560484e-05 -2.77560484e-05 -1.64637258e-05 -3.18136372e-05
      -1.86569396e-05 2.39983524e-06 -8.89758940e-06 4.15651630e-05
      3.26425215e-05 2.71983026e-05 1.27652447e-05 1.40305847e-05
      9.82944493e-06 1.45549611e-05 -5.16463160e-06 1.25569732e-05
      5.53508835e-06 1.25569732e-05 1.18004127e-05 1.18004127e-05
      1.19273209e-05 -4.70959458e-06 -2.21481187e-05 -2.44911589e-05
      -2.44911589e-05 -2.43601407e-05 1.16164551e-06 -1.18139462e-06
      3.54405383e-05 2.60649849e-05 2.23178467e-05 1.94331060e-05
      8.13568113e-06 1.21889143e-05 -4.30385035e-06 -2.32834536e-05
      -2.19564008e-05 -1.77552611e-05 -7.61950923e-06 -3.35665482e-06
      -7.00810779e-06 -7.00810779e-06 4.28931708e-06 -2.86387276e-05
      1.74746674e-05 1.35785322e-05 2.28110707e-06 6.17724208e-06
      3.35828918e-05 3.04817095e-05 1.60486525e-05 1.31128518e-05
      1.56493445e-06 6.13279326e-06 -5.16463160e-06 -5.16463160e-06
      -5.16463160e-06 -5.16463160e-06 -5.92119250e-06 -1.59230458e-05
      -2.14512402e-05 -2.23183724e-05 -1.50050328e-05 -1.47954115e-05
      -8.72343662e-06 -8.72343662e-06 1.05946892e-05 1.72108339e-05
      2.84804119e-05 1.65981910e-05 2.42710066e-05 1.46785960e-05
      1.14784461e-05 1.14784461e-05 1.17722516e-06 -1.01877558e-05
      -1.52108069e-05 -2.56078529e-05 -2.34350664e-05 -1.14805835e-05
      -1.12709622e-05 -7.00810779e-06 4.28931708e-06 4.28931708e-06
      4.31797207e-06 1.74746674e-05 6.17724208e-06 6.17724208e-06
      3.64749176e-05 3.13453820e-05 1.46778239e-05 4.45696105e-06
      4.45696105e-06 9.02481952e-06 -2.27260534e-06 -2.27260534e-06
      -2.48222659e-06 -1.87275473e-05 -1.87265905e-05 3.33560024e-07
      -2.36004980e-05 -1.96942401e-05 -6.30912473e-06 -8.63928926e-06
      -1.21878019e-08 2.12612281e-06 1.49439593e-05 1.49439593e-05
      2.17133565e-05 3.16544902e-05 1.72558866e-05 1.26502437e-05
      5.24895358e-06 1.14784461e-05 -2.95461177e-06 -8.21658887e-06
      -1.52108069e-05 -2.14067131e-05 -2.14067131e-05 -1.12092475e-05
      -9.03646105e-06 -1.32993155e-05 4.28931708e-06 1.01927726e-05
      1.01927726e-05 1.72650452e-05 2.07148582e-06 3.08861740e-06
      3.23275235e-05 2.71979898e-05 8.50207653e-06 3.09566786e-07
      3.09566786e-07 4.87742545e-06 1.72095024e-05 -9.17552916e-06
      -1.22641541e-05 -2.72093730e-05 -2.05991510e-05 -1.58484654e-05
      -1.84220353e-05 -7.94133211e-06 7.39343841e-06 1.16562924e-05
      1.38951827e-05 2.61044306e-06 2.06568911e-05 2.06568911e-05
      3.06999100e-05 3.03900415e-05 1.04632427e-05 4.60260424e-07
      -2.17085089e-05 -2.14330939e-05 -1.93009928e-05 2.05736364e-06
      9.31115846e-06 -2.41294219e-06 -1.14215545e-05 -7.00810779e-06
      -1.12092475e-05 -1.12092475e-05 6.29663782e-06 2.03378318e-06
      4.26828456e-06 1.61699263e-05 6.17724208e-06 2.28110707e-06
      3.26422087e-05 4.96658176e-05 1.66330155e-05 1.26416444e-05
      2.53066373e-05 2.95077771e-05 2.56116418e-05 1.65595554e-06
      -6.61299282e-06 -1.38662326e-05 -1.03021803e-05 -7.55589326e-06
      -2.80570225e-06 9.99112126e-06 8.40025314e-06 8.40025314e-06
      8.44014903e-06 1.27492967e-05 8.18066326e-07 9.75287548e-07
      2.74335184e-06 5.25831774e-06 1.23975215e-05 1.40726843e-05
      -2.07683843e-05 -8.03628609e-06 -1.34726224e-05 -1.40570828e-05
      -1.70441435e-05 -2.87682451e-05 -3.83848346e-05 -7.28933855e-06
      -7.00810779e-06 -7.00810779e-06 2.09549808e-06 -9.45241936e-06
      -1.93921778e-06 6.95462313e-06 -1.85273711e-05 -2.04247062e-05
      4.07114312e-05 4.71997409e-05 3.59518381e-05 1.99301321e-05
      2.52483478e-05 2.01477615e-05 1.20367067e-05 1.49868310e-06
      6.59499392e-06 6.59725765e-06 -2.90591106e-06 -3.68198926e-07
      -2.39655196e-06 2.13881776e-06 2.80853419e-05 2.07282610e-05
      -5.22509299e-06 -3.57383251e-05 -2.83370355e-05 -2.69516622e-05
      -2.51218844e-05 2.68553758e-05 6.78099127e-07 -1.44547212e-05
      -1.68958359e-05 -1.15438806e-05 -1.03232642e-05 -1.16588844e-05
      -7.68437894e-06 -1.51456252e-05 -4.25322287e-05 -3.39713879e-05
      -3.39713879e-05 -7.28933855e-06 6.29663782e-06 -1.93921778e-06
      -1.93921778e-06 -6.14035707e-06 -1.26239147e-05 -1.62118758e-05
      3.22508640e-05 4.35482871e-05 3.23003842e-05 1.99301321e-05
      1.91558629e-05 1.58724561e-05 2.73694532e-05 1.81411924e-05
      9.17662510e-06 1.50800806e-05 3.95582811e-06 1.66271493e-05
      -1.55448106e-05 -9.20730963e-06 5.37477126e-06 -1.88638078e-05
      -1.88638078e-05 -2.07766825e-05 -2.10271755e-05 1.43873450e-07
      4.14643910e-06 -5.49334845e-06 -2.83585614e-05 -3.91649264e-05
      -8.41220117e-06 -1.49996913e-06 -6.18782360e-06 2.33093374e-06
      4.37301480e-07 6.22743300e-06 -2.78117977e-06 -1.95893408e-05
      -1.95893408e-05 -3.44673281e-05 3.51214521e-06 -2.43515865e-06
      -2.43515865e-06 1.71223542e-06 -3.04382120e-05 -2.76980791e-05
      3.63982581e-05 4.76956811e-05 3.45830376e-05 2.64756400e-05
      3.07037808e-05 1.78436239e-05 2.93406210e-05 5.00974602e-06
      1.53272031e-05 3.58672005e-05 -1.42188965e-05 -9.18105525e-06
      -8.75984733e-06 -6.03514763e-06 1.34640441e-05 -1.18326325e-05
      -1.18326325e-05 1.26893328e-05 2.39867586e-05 1.13880633e-05
      1.04342216e-05 6.73063732e-06 -3.79609332e-07 -1.77918682e-05
      -3.77174474e-05 -3.91028188e-05 -2.72488287e-05 -1.24284304e-06
      -4.66328447e-06 -2.82280553e-06 -2.78117977e-06 -2.11107617e-05
      -1.95893408e-05 -1.95893408e-05 -2.31699032e-05 9.11275856e-06
      -2.43515865e-06 -2.43515865e-06 -3.07729824e-05 -3.07729824e-05
      3.56416967e-05 4.99783382e-05 2.43318264e-05 3.48241738e-05
      4.82493633e-05 3.68223409e-05 2.03565687e-05 1.92038533e-05
      3.41111408e-05 1.16827232e-05 -2.15174055e-06 -1.47977960e-06
      2.34884556e-06 1.20318209e-05 4.00670397e-05 2.79217966e-05
      2.85297738e-05 2.02321698e-05 2.82461879e-05 2.82461879e-05
      3.86880783e-05 2.44522416e-05 6.13111388e-06 -1.75106379e-05
      -3.74362171e-05 -3.95502830e-05 -5.42645721e-05 -3.41438499e-05
      -4.93881498e-06 -7.08565995e-06 -2.78117977e-06 -2.40027875e-05
      -1.95893408e-05 -1.95893408e-05 -2.31699032e-05 -2.11625829e-05
      -2.38439407e-05 -2.22351646e-05 -3.42931162e-05 -3.21939588e-05
      3.56416967e-05 4.99783382e-05 2.43318264e-05 3.48241738e-05
      3.98472257e-05 4.77593494e-05 3.92626898e-05 2.23496318e-05
      2.96051348e-05 -2.62287131e-06 9.77916989e-06 1.14285294e-05
      2.98158266e-05 5.74840815e-05 7.24906640e-05 5.28304990e-05
      3.71142232e-05 6.66802443e-05 1.13558635e-04 8.06019380e-05
      6.35039250e-05 3.68559449e-05 6.13111388e-06 -1.49551352e-05
      -3.22893211e-05 -3.88215885e-05 -5.62659952e-05 -4.64224031e-05
      -2.13685089e-05 -7.92339142e-06 8.86360067e-06 -6.28118323e-06
      -1.95893408e-05 -1.95893408e-05 -2.31699032e-05 -1.72664477e-05
      -2.38439407e-05 -2.23923853e-05 -3.82369726e-05 -1.79274211e-05
      4.38016032e-05 5.01093527e-05 2.85946808e-05 3.98472257e-05
      3.98472257e-05 4.77593494e-05 4.01509242e-05 8.23035953e-06
      2.05864490e-05 9.92461173e-06 1.56482929e-05 4.36432929e-05
      5.17777080e-05 5.01160430e-05 1.21239580e-04 9.00828454e-05
      8.29995406e-05 1.02261212e-04 1.13558635e-04 1.13401416e-04
      1.46114384e-04 7.67877500e-05 5.93342374e-05 9.75877356e-06
      -5.60727403e-06 -1.28682350e-05 -2.95839473e-05 -3.92193651e-05
      -4.44974357e-05 -1.10909486e-05 8.86360067e-06 -2.11591687e-05
      -3.44673281e-05 -2.13106323e-05 -1.00132074e-05 -4.26697306e-06
      -3.98574230e-06 -2.23923853e-05 -3.86511747e-05 -1.77439470e-05
      3.06301554e-05 3.11172626e-05 -2.22379913e-06 1.35800792e-05
      1.86031302e-05 2.65152539e-05 3.86387219e-05 2.22407125e-05
      2.53853941e-05 7.69419421e-06 2.18018031e-05 2.85424576e-05
      6.77629869e-05 7.03281185e-05 8.18279077e-05 5.72077988e-05
      6.69723813e-05 7.99096815e-05 1.27069245e-04 1.12375208e-04
      1.26808271e-04 9.65729996e-05 6.42624727e-05 2.54829465e-05
      -2.24109021e-06 1.03372123e-07 -1.71838128e-05 -4.30251748e-05
      -8.30728004e-06 -1.93633041e-05 -1.30362714e-05 -2.11591687e-05
      -2.13106323e-05 -2.13106323e-05 -1.00132074e-05 -4.10975190e-06
      -3.82852113e-06 -1.06872467e-05 -2.63677248e-05 -4.06754334e-05
      2.98000159e-05 3.77179385e-05 1.42765407e-06 -1.29709515e-05
      -1.31019688e-05 1.55512462e-05 2.91947072e-05 2.06435707e-05
      3.63541294e-05 3.70828238e-05 3.15249454e-05 5.40753535e-05
      4.84156262e-05 4.96529028e-05 8.70910444e-05 9.86608866e-05
      8.73929675e-05 8.96936908e-05 1.15095994e-04 1.15095994e-04
      1.31720051e-04 1.08311237e-04 4.48210194e-05 -1.44453463e-06
      -1.83586853e-05 -1.59453502e-05 -3.33897551e-05 -5.81843924e-05
      -6.27583649e-05 -3.42412895e-05 2.15409145e-05 -7.39449752e-06
      -1.13254737e-05 -2.13106323e-05 -1.00132074e-05 -9.73197712e-06
      -3.82852113e-06 -7.72465592e-06 -1.89972834e-05 -3.23778331e-05
      5.67969328e-05 4.74571352e-05 3.59415099e-05 1.56394472e-05
      -2.21317578e-06 2.44688727e-05 4.27380292e-05 3.20485815e-05
      4.65853882e-05 4.42423479e-05 4.04154562e-05 5.36935149e-05
      5.36935149e-05 7.98172623e-05 8.44785172e-05 8.17776017e-05
      8.52791054e-05 9.63537095e-05 1.22326484e-04 1.25375416e-04
      1.47103361e-04 1.03841907e-04 7.04483609e-05 -6.74553894e-06
      -2.07676640e-05 -2.21530354e-05 -4.88129590e-05 -5.87296090e-05
      -5.01468894e-05 -1.08426493e-05 2.15409145e-05 -7.39449752e-06
      -1.13254737e-05 -2.13106323e-05 -9.73197712e-06 -9.73197712e-06
      -7.47997456e-06 -7.47997456e-06 -7.58038323e-06 -2.67513842e-05
      3.84544874e-05 3.66190470e-05 2.27700602e-05 2.46799959e-06
      -1.53846231e-05 -1.53846231e-05 1.36404651e-05 1.88771319e-05
      2.74729828e-05 2.51299425e-05 3.27066482e-05 3.49893016e-05
      2.21121172e-05 1.53694727e-05 3.91377034e-05 5.02281691e-05
      5.43376445e-05 6.54122487e-05 9.13850236e-05 8.97648788e-05
      9.19050435e-05 7.63701173e-05 1.89440998e-05 -2.26416851e-05
      -3.39391117e-05 -3.53244832e-05 -5.66709205e-05 -7.11444955e-05
      -5.89509327e-05 -2.17889792e-05 8.36946765e-06 -2.05659453e-05
      -2.44969215e-05 -3.44820801e-05 -2.65548770e-05 -2.65548770e-05
      -2.06514214e-05 -2.06514214e-05 1.84440451e-05 -2.83749141e-05
      -1.22184802e-05 4.06271283e-05 2.68581289e-07 -1.02338890e-05
      -1.95804241e-05 -3.49589900e-05 9.44466319e-06 -8.98123108e-06
      -8.98123108e-06 -4.42958344e-06 4.34350068e-06 -7.91065213e-06
      -7.91065213e-06 4.91487185e-07 2.42597180e-05 5.02281691e-05
      5.43376445e-05 5.34265710e-05 7.96227832e-05 5.89095398e-05
      6.83530452e-05 4.95301574e-05 -1.20923312e-06 -1.99169863e-05
      -3.39391117e-05 -3.78883669e-05 -5.89535739e-05 -5.72853605e-05
      -1.76214253e-05 -1.02079684e-05 1.43104244e-05 -2.05659453e-05
      -4.25469807e-05 -3.78523036e-05 -2.65548770e-05 -2.65548770e-05
      -2.65548770e-05 -2.06514214e-05 1.51319828e-05 -3.39031067e-05
      -1.22184802e-05 3.33883581e-05 -1.12793359e-05 -1.02338890e-05
      -1.95804241e-05 -1.95804241e-05 -8.27694203e-06 -1.95743669e-05
      -1.95743669e-05 -1.95743669e-05 -1.96347537e-05 -7.91065213e-06
      -7.91065213e-06 -7.97250686e-06 3.09716938e-06 2.14899064e-05
      2.48537999e-05 1.19030983e-05 3.29414397e-05 3.73858966e-05
      3.66742534e-05 1.14728718e-05 -1.20923312e-06 -2.29229172e-05
      -3.34637807e-05 -3.56057135e-05 -4.50403204e-05 -4.22110606e-05
      -1.00648786e-05 -1.52875527e-05 -3.73963439e-06 4.99924499e-06
      -4.22657504e-05 -3.78523036e-05 -2.65548770e-05 -2.65548770e-05
      -2.65548770e-05 -2.06514214e-05 1.51319828e-05 -1.61314565e-05
      2.59356989e-06 3.45229728e-06 3.15372131e-06 2.68581289e-07
      -1.03649063e-05 -1.72373839e-05 -8.27694203e-06 -1.95743669e-05
      -1.95743669e-05 -1.95743669e-05 -2.80383611e-05 -1.63746463e-05
      -1.63746463e-05 -1.12707530e-05 -7.25248083e-06 1.08447357e-05
      1.79751771e-06 9.56005897e-06 2.78948464e-05 2.55293526e-05
      -1.35389282e-05 -8.68046027e-06 -1.92120697e-05 -2.01982166e-05
      -3.42203421e-05 -2.34298950e-05 -3.87876316e-05 -1.26302821e-05
      1.09961256e-05 -1.52875527e-05 -3.45840363e-06 -3.45840363e-06
      -4.16577714e-05 -3.78523036e-05 -2.65548770e-05 -2.65548770e-05
      -2.65548770e-05 1.27170495e-07 1.54075133e-05 -1.13999886e-05
      -3.03287743e-06 2.72360376e-06 3.15372131e-06 -1.12793359e-05
      -1.42610415e-05 -1.72373839e-05 9.44466319e-06 -1.95743669e-05
      -2.38372213e-05 -2.80383611e-05 -2.59653279e-05 -1.96728924e-05
      -2.17012457e-05 -1.88273007e-05 -2.59373701e-05 -2.31195963e-06
      2.20208705e-07 7.82552797e-06 1.95972425e-05 -1.13234819e-05
      -3.36922603e-05 -2.94394540e-05 -1.92120697e-05 -1.21757639e-05
      -2.10812577e-05 -2.33503488e-05 4.93694643e-06 -4.94271717e-06
      -3.56345117e-06 -3.45840363e-06 -3.45840363e-06 -3.45840363e-06
      -2.72591678e-05 -2.37197492e-05 -2.24074829e-05 -2.24074829e-05
      -7.52949700e-06 1.72340660e-05 2.82515539e-05 -2.70334226e-06
      -3.17174308e-05 -5.59803368e-07 -2.98029790e-05 -1.12793359e-05
      -2.56779422e-05 -1.13339293e-05 1.86601810e-05 -2.38372213e-05
      -2.80383611e-05 -3.13366072e-05 -1.93582055e-05 -2.17012457e-05
      -2.72294383e-05 -3.19839965e-05 -2.09143182e-05 -1.84450964e-05
      6.29875174e-08 -4.72075357e-07 -2.06700188e-05 -5.17186127e-05
      -3.76249445e-05 -3.30909061e-05 -1.56275037e-05 9.72834914e-06
      -1.13337901e-05 2.35173993e-05 1.46125349e-05 1.34039065e-05
      6.45989030e-06 1.78496302e-05 1.78496302e-05 1.55669768e-05
      -1.66914342e-05 -8.84176370e-06 -7.52949700e-06 -7.52949700e-06
      -4.63747074e-06 1.59236242e-05 2.91152282e-05 1.33453796e-05
      -3.17174308e-05 -8.70018539e-06 -2.98029790e-05 -1.12793359e-05
      -2.56779422e-05 -8.02186696e-06 -2.57434713e-05 -2.41005873e-05
      -2.71892131e-05 -2.92175664e-05 -1.52108105e-05 -2.30820442e-05
      -3.62387400e-05 -2.81121320e-05 -2.37915192e-05 -1.42977015e-05
      -4.08722190e-06 -4.32381275e-05 -4.23791571e-05 -4.22481389e-05
      -1.53013170e-05 -1.07672813e-05 1.16977308e-05 3.55314332e-05
      4.27921041e-05 4.39235773e-05 3.49015827e-05 3.41853483e-05
      3.34951656e-05 1.84590026e-05 1.84590026e-05 1.84590026e-05
      -1.37994084e-05 -5.94973699e-06 -4.63747074e-06 -4.63747074e-06
      2.20445781e-05 2.18577316e-05 2.13350304e-05 1.54804420e-05
      -1.26920504e-05 -2.80625227e-06 -1.40610055e-05 -2.52106565e-05
      -6.65256130e-06 -4.30952150e-06 -6.88561931e-06 -1.23112259e-05
      -1.43395791e-05 -1.43395791e-05 -3.07418159e-05 -2.13607545e-05
      -2.16362841e-05 -1.39365839e-05 -7.27492170e-06 -1.13687720e-05
      -3.44721207e-06 -3.37419588e-05 -3.19877436e-05 -2.75938728e-05
      7.92768878e-06 1.65945366e-05 2.17947454e-05 7.69083563e-05
      5.14935564e-05 5.21491311e-05 4.16897419e-05 3.72083923e-05
      3.34951656e-05 2.17710658e-05 1.84590026e-05 1.84590026e-05
      -1.37994084e-05 -8.77984885e-09 -9.86017540e-07 2.56960302e-05
      2.14948905e-05 1.95750763e-05 2.13350304e-05 1.06090783e-05
      -2.48145225e-05 -2.04969183e-06 -3.54900549e-05 -2.23186307e-05
      -3.76053504e-06 -1.00125062e-05 -3.99359305e-06 -1.14475533e-05
      -1.14475533e-05 -1.69757477e-05 -1.61256867e-05 -1.64012181e-05
      -2.30981495e-05 -1.54525715e-05 -6.22838070e-06 -1.05992749e-05
      -2.17496454e-05 -3.40869192e-05 -2.56965377e-05 -1.21332941e-05
      8.74843681e-06 6.91518198e-06 2.75906623e-05 7.12486290e-05
      4.34144022e-05 5.72497156e-05 4.16897419e-05 4.87563084e-05
      3.34951656e-05 2.17710658e-05 3.28576098e-05 2.21104565e-05
      -1.01479554e-05 3.64267339e-06 4.95493941e-06 2.54147999e-05
      1.92334592e-05 1.72654927e-05 1.63276782e-05 9.88038482e-06
      -1.49006100e-05 8.42334657e-07 -3.25980291e-05 -2.56020376e-05
      -2.23186307e-05 -1.00911102e-05 -3.69358131e-05 -1.14475533e-05
      -1.69757477e-05 -3.15012403e-05 -3.38442806e-05 -2.29409288e-05
      -2.38547109e-05 -6.98857775e-06 -9.05902107e-06 -5.27267548e-06
      -1.97212921e-05 -3.24781431e-05 -1.17190939e-05 -1.15880766e-05
      1.51904133e-05 1.24433764e-05 6.08285955e-05 6.31694784e-05
      5.34228238e-05 6.11458527e-05 4.16897419e-05 4.67851423e-05
      3.71466194e-05 -7.53418180e-06 6.58319323e-06 -1.11274749e-05
      -4.33858877e-05 -4.21187287e-05 1.82243093e-05 8.08221375e-06
      -1.28122679e-06 -9.66539801e-07 6.91794367e-06 5.63883475e-07
      -1.95430803e-05 -8.88667455e-06 -3.67454231e-05 -5.11784820e-05
      -2.65970411e-05 -1.43695215e-05 -4.47346611e-05 -1.50990063e-05
      -2.06271998e-05 -3.37838937e-05 -3.23219901e-05 -2.30981495e-05
      -1.95918565e-05 -1.40820721e-05 -3.94204335e-06 -3.82293765e-05
      -1.16651836e-05 -3.24781431e-05 -6.03367880e-06 -5.14610065e-06
      9.01142630e-06 -1.75450350e-05 2.63560942e-05 6.28939451e-05
      2.01905932e-05 2.76323899e-05 2.33756527e-05 8.62553043e-06
      8.49451317e-06 -2.95199934e-05 -1.51213881e-05 -3.25565270e-05
      -3.76571115e-05 -2.88348692e-05 -1.81454216e-05 -3.63787331e-06
      -9.57883003e-06 -1.16071833e-05 -6.21350318e-06 -4.53670236e-06
      7.93653453e-06 -8.51177356e-06 -7.72033582e-06 -4.05378378e-05
      -3.53206997e-05 -1.80209754e-05 -4.67630125e-05 -2.14625325e-05
      -3.79312878e-05 -3.56486344e-05 -3.89696434e-05 -2.80021050e-05
      -3.50239898e-05 -2.26402281e-05 -1.76171761e-05 -4.77033682e-05
      -2.65044546e-05 -3.41859668e-05 -2.00441718e-05 -1.01142432e-05
      -1.53413475e-05 -1.13495971e-05 -7.42705515e-06 2.44646471e-05
      3.30127368e-05 3.36861785e-06 1.40138354e-06 -8.33454123e-06
      -1.35661448e-05 -3.84492050e-05 -2.40505997e-05 -1.14916256e-05
      -1.42584704e-05 -3.21182779e-05 -2.56299681e-05 -6.92128060e-06
      -1.28622378e-05 -1.71353768e-05 -1.45111071e-05 -4.37948120e-06
      1.23909413e-05 -4.52331778e-06 -8.17477121e-06 -4.41892917e-05
      -4.52997556e-05 -1.38198357e-05 -4.08595588e-05 -3.69065856e-05
      -3.79312878e-05 -3.79312878e-05 -3.89696434e-05 -3.50239898e-05
      -3.53052201e-05 -2.69030807e-05 -2.18800305e-05 -4.63763135e-05
      -6.01938664e-05 -4.94234155e-05 -3.59840597e-05 -4.62293465e-05
      -3.17962877e-05 -2.80908589e-05 -3.74655356e-05 -1.49412824e-06
      -5.80679307e-06 -2.23194638e-05 -1.11300033e-05 -1.75825207e-05
      -1.77135389e-05 -4.25965991e-05 -1.59145511e-05 -1.24041412e-06
      -2.26652937e-05 -5.49237047e-05 -6.20754363e-05 -1.44388969e-05
      -1.02915028e-05 -3.53369251e-05 -2.97104780e-05 -1.63285385e-05
      2.81403209e-06 2.18899022e-05 2.47819298e-05 -7.94918378e-06
      -8.08020104e-06 -2.72785855e-05 -3.66584172e-05 -3.60175072e-05
      -4.94792075e-05 -3.60813865e-05 -2.80021050e-05 -3.50239898e-05
      -3.53052201e-05 -2.69030807e-05 -1.63518362e-05 -5.06391698e-05
      -4.73674227e-05 -5.28679957e-05 -5.56442210e-05 -4.82577016e-05
      -3.01731889e-05 -3.62322899e-05 -3.37391284e-05 -5.35520257e-06
      -1.27564927e-05 -2.92691639e-05 -3.77242941e-05 -3.82358558e-05
      -3.89748493e-05 -3.42444582e-05 -1.22145748e-05 -2.27304008e-05
      -2.60813194e-05 -5.13161249e-05 -4.42815544e-05 -2.98829491e-05
      -1.87798560e-05 -2.63528727e-05 -2.40098325e-05 -3.14158715e-05
      3.14529279e-06 1.20996774e-05 7.95228334e-06 -1.50618071e-05
      -1.83820646e-07 -3.23040331e-05 -2.99609910e-05 -3.97943695e-05
      -4.01610887e-05 -3.39477556e-05 -4.67480895e-05 -3.53052201e-05
      -3.53052201e-05 -2.69030807e-05 -2.18800305e-05 -9.65258823e-06
      -5.16302789e-05 -4.64967125e-05 -6.07591428e-05 -5.33726197e-05
      -3.47384230e-05 -4.07975240e-05 -4.48767241e-05 -9.93472258e-06
      -1.42782510e-05 2.44130911e-06 -4.82774194e-05 -2.99728581e-05
      -2.61340847e-05 -4.18154414e-05 -3.44049840e-05 -3.36484227e-05
      -1.29498721e-05 -3.81846803e-05 -3.70910639e-05 -1.37868792e-05
      -1.58152325e-05 -1.62428405e-05 -1.85069293e-08 -8.03252442e-06
      -1.39542153e-05 2.52311238e-05 3.03317101e-05 -1.09144130e-05
      -2.86360173e-05 -4.30346226e-05 -4.06915824e-05 -5.32073682e-05
      -2.28853278e-05 -2.73657897e-05 -3.56894525e-05 -2.84477228e-05
      -2.77936706e-05 -2.77936706e-05 -2.58592445e-05 -1.49052512e-05
      -5.17823537e-05 -7.84314252e-05 -7.17683506e-05 -6.43818275e-05
      -4.56859198e-05 -1.85070858e-05 -1.44491160e-05 -1.02477652e-05
      -1.82331278e-05 -3.47458008e-05 -2.75198599e-05 -2.36464202e-05
      -4.70503437e-06 -2.03863929e-05 -1.24307144e-05 -1.70071344e-05
      4.41335715e-06 -1.99837195e-05 -1.30997405e-05 -8.68629377e-06
      -7.29488136e-07 -6.25768234e-06 3.26490022e-06 -3.83138513e-06
      6.95714198e-06 1.26101049e-05 1.24790877e-05 -1.95397001e-06
      -1.95397001e-06 -1.63525765e-05 -3.10962896e-05 -4.00506724e-05
      -4.01063553e-05 -4.50028092e-05 -4.63045872e-05 -2.42465831e-05
      -2.42465831e-05 -2.84477228e-05 -2.34246727e-05 -2.54530241e-05
      -2.35327825e-05 -3.43680003e-05 -3.40263978e-05 -2.05932538e-05
      -3.72062595e-06 -5.51687071e-06 -5.66003973e-06 2.74245031e-06
      4.57647229e-06 1.80579118e-05 6.30155512e-07 -5.82236225e-06
      -5.95337951e-06 -2.00735685e-05 -2.83517102e-06 -8.62314118e-06
      -5.80239521e-06 -1.33882495e-05 -9.81633366e-06 4.58227214e-06
      2.55391910e-06 -2.97427505e-06 9.21860192e-07 -1.87093719e-05
      -1.10585306e-05 1.87076221e-05 1.24790877e-05 5.39280791e-06
      1.23285099e-05 -1.40201764e-05 -1.98533744e-05 -2.69496595e-05
      -4.01063553e-05 -4.72854626e-05 -3.08813833e-05 -1.91572799e-05
      -2.34201343e-05 -2.34201343e-05 -1.83970842e-05 -2.25982239e-05
      -4.51707929e-05 -3.29138893e-05 -3.89079505e-05 -4.46528757e-05
      -1.70883704e-05 -1.28472957e-05 -6.91935020e-06 2.08605579e-05
      9.56313215e-06 3.25053952e-05 9.62212562e-06 1.31547667e-05
      3.03859019e-06 -1.32507448e-05 5.13927318e-07 -4.47574666e-06
      -1.65500103e-06 4.39575660e-06 -2.01748617e-06 -1.20026452e-05
      1.23811196e-05 4.82457244e-06 9.02571173e-06 7.91562979e-06
      -1.54524023e-05 1.87076221e-05 1.87076221e-05 4.27456462e-06
      4.27456462e-06 -1.01240412e-05 -1.43251809e-05 -6.54347969e-06
      -1.20716741e-05 -1.92507796e-05 -2.00073409e-05 -8.28323937e-06
      -8.28323937e-06 -8.28323937e-06 -7.52304277e-06 -7.52304277e-06
      -3.42967542e-05 -1.98981470e-05 -1.75974437e-05 -2.18898585e-05
      -9.35413573e-06 -2.18604055e-06 -1.91050981e-06 1.24569397e-05
      1.75095229e-05 2.36456926e-05 -4.53531726e-07 -3.61566731e-06
      -2.27262881e-05 -2.31246449e-05 -2.25166677e-05 -1.75211826e-05
      -2.75630791e-05 -3.22714513e-05 -2.09740247e-05 -2.86995346e-05
      1.23811196e-05 -8.02506111e-06 -3.82392136e-06 -5.57698513e-06
      -8.96860820e-06 1.67274229e-05 1.67891376e-05 6.55721851e-06
      6.55721851e-06 7.03659953e-06 7.03659953e-06 -8.46196508e-06
      -4.26082534e-06 -1.14399318e-05 -2.00073409e-05 -2.00073409e-05
      -2.00073409e-05 -2.23661482e-06 -8.28323937e-06 -1.25460938e-05
      -3.14672106e-05 -3.14672106e-05 -1.38684554e-05 -1.38684554e-05
      -1.08522981e-05 -8.50925790e-06 -4.52640947e-08 5.85819180e-06
      1.02540189e-05 1.36677436e-05 -1.39901676e-05 -2.45002811e-05
      -2.15820510e-05 -2.15820510e-05 -2.08254914e-05 -1.97070622e-05
      -2.39699148e-05 -3.72928735e-05 -2.48940651e-05 -2.48940651e-05
      -2.97868919e-05 -3.11139447e-05 -2.07842204e-05 -2.13190924e-05
      -8.96860820e-06 1.67891376e-05 3.16054102e-05 2.14352058e-05
      2.14352058e-05 2.14352058e-05 2.88920546e-06 -8.40821940e-06
      7.79276706e-06 -7.78847880e-06 -8.38781853e-06 -8.38781853e-06
      -8.38781853e-06 -1.39160120e-05 -1.25306406e-05 -1.25306406e-05
      -3.86047104e-05 -4.56517701e-05 -1.99557398e-05 -2.38518751e-05
      -2.70080236e-05 -1.57783579e-05 -7.31436376e-06 -6.54347673e-07
      5.76983257e-06 5.22461460e-06 -2.01698040e-05 -1.71156680e-05
      -1.43488232e-05 -1.76608864e-05 -1.71156680e-05 -2.30191235e-05
      -1.51260838e-05 -3.70488269e-05 -8.11334121e-06 7.79065067e-06
      -1.57358245e-05 -1.70628791e-05 -2.03747049e-06 -1.33348958e-05
      1.24528578e-05 3.81488899e-05 3.81488899e-05 2.08238034e-05
      3.34887991e-05 3.42174899e-05 1.06880525e-05 -6.09372364e-07
      1.19321186e-07 -6.29458737e-06 -7.05114780e-06 -7.05114780e-06
      -7.05114780e-06 -6.37239282e-07 2.11267002e-06 -4.02350088e-06
      -3.07055489e-05 -3.00975717e-05 -9.27237306e-06 -1.31685083e-05
      1.39556744e-06 -7.80930986e-06 -3.54645590e-06 -3.67747339e-06
      8.65016227e-06 6.84957740e-06 -2.08288911e-05 -1.82517142e-05
      -1.94842573e-06 5.42143562e-06 -4.56372300e-06 -5.91627156e-07
      -2.26630436e-06 -2.62441135e-05 -5.48082312e-07 5.98945391e-08
      -5.48082312e-07 -4.28049987e-07 -1.60103264e-05 -2.79888336e-05
      1.32432660e-05 4.02629521e-05 4.45258083e-05 3.71095157e-05
      2.87073781e-05 3.71095157e-05 1.41880555e-05 3.61932439e-06
      3.61932439e-06 7.27298016e-07 7.27298016e-07 7.27298016e-07
      7.27298016e-07 2.11267002e-06 2.11267002e-06 1.50469316e-06
      -2.45693773e-05 -3.00975717e-05 -5.00951819e-06 -8.29767669e-06
      1.26454984e-06 7.87044428e-06 7.87044428e-06 1.27336380e-05
      3.36118092e-06 2.10827857e-05 9.24041217e-07 -5.87596332e-06
      2.74600507e-06 -7.23915355e-06 -5.91627156e-07 1.63496807e-08
      -5.74893011e-06 -2.13823150e-05 3.70573866e-06 1.42988738e-05
      1.42988738e-05 1.85617282e-05 1.25597826e-05 1.31677598e-05</_>
    <_>
      6.64068921e-06 1.29252044e-07 1.29252044e-07 1.67919677e-06
      4.66126920e-07 4.66126920e-07 4.66126920e-07 1.29252044e-07
      1.94113727e-06 1.60426237e-06 1.60426237e-06 3.39165558e-06
      3.39165558e-06 3.39165558e-06 1.29252044e-07 1.29252044e-07
      3.54865324e-06 3.54865324e-06 3.54865324e-06 3.54865324e-06
      6.96020106e-06 6.56575503e-06 6.56575503e-06 6.56575503e-06
      1.13781034e-05 8.35314859e-06 1.29252044e-07 1.29252044e-07
      1.29252044e-07 1.67919677e-06 1.67919677e-06 4.94160031e-06
      4.94160031e-06 4.94160031e-06 4.94160031e-06 4.94160031e-06
      4.94160031e-06 6.41661063e-06 6.41661063e-06 6.41661063e-06
      6.64068921e-06 1.29252044e-07 1.29252044e-07 1.29252044e-07
      1.29252044e-07 1.29252044e-07 1.29252044e-07 1.29252044e-07
      1.29252044e-07 1.29252044e-07 1.29252044e-07 4.94160031e-06
      3.39165558e-06 1.29252044e-07 1.29252044e-07 3.78610184e-06
      6.81105666e-06 6.81105666e-06 3.54865324e-06 3.54865324e-06
      8.51014556e-06 6.56575503e-06 6.56575503e-06 9.82815891e-06
      1.13781034e-05 8.35314859e-06 1.29252044e-07 1.29252044e-07
      1.29252044e-07 1.67919677e-06 1.67919677e-06 1.67919677e-06
      4.94160031e-06 4.94160031e-06 4.94160031e-06 4.94160031e-06
      4.94160031e-06 6.41661063e-06 6.41661063e-06 6.41661063e-06
      6.64068921e-06 1.29252044e-07 1.29252044e-07 1.29252044e-07
      1.29252044e-07 1.29252044e-07 1.29252044e-07 3.39165558e-06
      3.39165558e-06 3.39165558e-06 3.39165558e-06 3.39165558e-06
      4.94160031e-06 4.94160031e-06 2.16859735e-06 2.16859735e-06
      2.09366294e-06 5.35606659e-06 2.09366294e-06 2.09366294e-06
      6.96020106e-06 6.96020106e-06 6.56575503e-06 8.13080260e-06
      1.29431510e-05 9.91819616e-06 1.29252044e-07 1.29252044e-07
      1.29252044e-07 1.29252044e-07 1.29252044e-07 1.29252044e-07
      1.29252044e-07 1.29252044e-07 3.39165558e-06 1.67919677e-06
      1.67919677e-06 3.15420698e-06 3.15420698e-06 4.86666613e-06
      6.64068921e-06 5.09074471e-06 1.29252044e-07 1.29252044e-07
      1.29252044e-07 1.29252044e-07 1.29252044e-07 3.39165558e-06
      3.39165558e-06 3.39165558e-06 3.39165558e-06 3.39165558e-06
      4.94160031e-06 -3.48046924e-05 -3.43152933e-05 -3.58652360e-05
      -3.43902284e-05 -3.40533516e-05 -2.41515936e-05 -2.05081269e-05
      -1.12987709e-05 -1.13937258e-05 -1.44709884e-05 -1.44709884e-05
      -1.44709884e-05 2.05378910e-05 1.55763992e-05 4.66126920e-07
      1.29252044e-07 1.29252044e-07 1.29252044e-07 1.29252044e-07
      1.29252044e-07 1.29252044e-07 1.29252044e-07 1.29252044e-07
      1.29252044e-07 1.60426237e-06 1.60426237e-06 1.60426237e-06
      5.09074471e-06 5.09074471e-06 1.29252044e-07 1.29252044e-07
      1.29252044e-07 1.29252044e-07 1.29252044e-07 1.29252044e-07
      1.29252044e-07 1.29252044e-07 -3.63546387e-05 -3.63546387e-05
      -3.63546387e-05 -3.58652360e-05 -2.75134244e-05 -2.71765493e-05
      -1.93003216e-05 -1.78253122e-05 -1.62602646e-05 -1.62602646e-05
      -1.12987709e-05 -1.13937258e-05 -1.17881718e-05 -1.44709884e-05
      -1.44709884e-05 -1.59459978e-05 -2.09074915e-05 1.40113516e-05
      1.40113516e-05 1.29252044e-07 1.29252044e-07 1.29252044e-07
      1.29252044e-07 1.29252044e-07 1.29252044e-07 1.29252044e-07
      1.29252044e-07 1.29252044e-07 1.60426237e-06 1.60426237e-06
      5.09074471e-06 5.09074471e-06 1.29252044e-07 1.29252044e-07
      1.29252044e-07 1.29252044e-07 1.29252044e-07 1.29252044e-07
      1.29252044e-07 1.29252044e-07 -2.80028253e-05 -2.75134244e-05
      -2.71765493e-05 -2.19831381e-05 -2.19831381e-05 -1.93003216e-05
      -1.77352740e-05 -1.62602646e-05 -1.62602646e-05 -1.62602646e-05
      -1.12987709e-05 -1.12987709e-05 -1.13937258e-05 -1.44709884e-05
      -1.44709884e-05 -1.44709884e-05 -2.09074915e-05 -2.24725391e-05
      1.40113516e-05 1.29252044e-07 1.29252044e-07 1.29252044e-07
      1.29252044e-07 1.29252044e-07 1.29252044e-07 5.23698247e-07
      5.23698247e-07 1.29252044e-07 1.60426237e-06 1.60426237e-06
      5.09074471e-06 5.09074471e-06 1.29252044e-07 1.29252044e-07
      1.29252044e-07 1.29252044e-07 8.48106538e-06 8.48106538e-06
      8.81794040e-06 1.40113516e-05 1.45007516e-05 -2.19831381e-05
      -2.19831381e-05 -2.19831381e-05 -1.77352740e-05 -1.77352740e-05
      -1.77352740e-05 -1.62602646e-05 -1.62602646e-05 -1.62602646e-05
      -1.12987709e-05 -1.12987709e-05 -1.13937258e-05 -1.17881718e-05
      -1.23651134e-05 -1.23651134e-05 -1.44210680e-05 -1.59861156e-05
      -1.59861156e-05 4.50980042e-06 1.29252044e-07 1.29252044e-07
      1.29252044e-07 1.29252044e-07 5.23698247e-07 5.23698247e-07
      6.18652678e-07 1.99870851e-06 1.60426237e-06 1.60426237e-06
      6.64068921e-06 1.34425582e-05 8.48106538e-06 8.81794040e-06
      8.81794040e-06 8.81794040e-06 1.40113516e-05 1.40113516e-05
      1.40113516e-05 1.45007516e-05 -2.19831381e-05 -2.19831381e-05
      -2.04180906e-05 -1.77352740e-05 -1.77352740e-05 -1.77352740e-05
      -1.77352740e-05 -1.62602646e-05 -1.62602646e-05 -1.62602646e-05
      -1.12987709e-05 -1.12987709e-05 -4.90730281e-06 -5.30174884e-06
      -7.98456495e-06 -7.98456495e-06 -1.44210680e-05 -1.59861156e-05
      -1.59861156e-05 -3.19740902e-05 1.29252044e-07 1.29252044e-07
      1.29252044e-07 1.29252044e-07 5.23698247e-07 6.18652678e-07
      6.18652678e-07 2.09366294e-06 1.69921691e-06 1.60426237e-06
      2.05227880e-05 2.05227880e-05 1.40113516e-05 1.40113516e-05
      1.40113516e-05 1.40113516e-05 1.55612961e-05 1.41063056e-05
      1.41063056e-05 1.60658001e-05 -2.04180906e-05 -1.77352740e-05
      -1.77352740e-05 -1.77352740e-05 1.87486166e-05 1.87486166e-05
      1.87486166e-05 2.02236261e-05 2.02236261e-05 2.02236261e-05
      -9.19289687e-06 -4.81234838e-06 -4.81234838e-06 -5.30174884e-06
      -5.30174884e-06 -7.98456495e-06 -1.44210680e-05 -1.59861156e-05
      -1.59861156e-05 -3.19740902e-05 1.29252044e-07 1.29252044e-07
      1.29252044e-07 1.29252044e-07 5.23698247e-07 6.18652678e-07
      6.18652678e-07 2.09366294e-06 2.09366294e-06 1.69921691e-06
      2.05227880e-05 2.05227880e-05 1.40113516e-05 1.40113516e-05
      1.40113516e-05 1.40113516e-05 1.40113516e-05 1.41063056e-05
      1.56713540e-05 1.60658001e-05 1.87486166e-05 -1.77352740e-05
      1.87486166e-05 1.87486166e-05 1.87486166e-05 1.87486166e-05
      1.87486166e-05 2.02236261e-05 2.02236261e-05 2.67100495e-05
      3.16715414e-05 3.16715414e-05 -4.81234838e-06 -3.35735808e-06
      -4.89400634e-07 -4.89400634e-07 -9.60871967e-06 -1.27237126e-05
      -1.30605868e-05 -2.87116854e-05 3.39165558e-06 1.29252044e-07
      1.29252044e-07 1.29252044e-07 1.29252044e-07 6.18652678e-07
      6.18652678e-07 2.09366294e-06 2.09366294e-06 1.69921691e-06
      2.05227880e-05 2.05227880e-05 1.40113516e-05 1.40113516e-05
      1.40113516e-05 1.40113516e-05 1.40113516e-05 1.41063056e-05
      1.83541706e-05 1.87486166e-05 1.87486166e-05 1.87486166e-05
      1.87486166e-05 1.87486166e-05 1.87486166e-05 1.87486166e-05
      1.87486166e-05 2.67100495e-05 2.67100495e-05 2.67100495e-05
      3.16715414e-05 3.32214877e-05 3.64838888e-05 0. -4.89400634e-07
      -4.89400634e-07 -9.60871967e-06 -1.27237126e-05 -1.27237126e-05
      -2.87116854e-05 3.39165558e-06 1.29252044e-07 1.29252044e-07
      1.29252044e-07 1.29252044e-07 6.18652678e-07 6.18652678e-07
      2.09366294e-06 2.09366294e-06 2.09366294e-06 2.05227880e-05
      2.05227880e-05 1.40113516e-05 1.40113516e-05 1.40113516e-05
      1.40113516e-05 1.40113516e-05 1.67891212e-05 1.83541706e-05
      1.87486166e-05 1.87486166e-05 1.87486166e-05 1.87486166e-05
      1.87486166e-05 1.87486166e-05 2.52350383e-05 2.52350383e-05
      2.67100495e-05 2.67100495e-05 2.67100495e-05 3.64838888e-05
      3.64838888e-05 3.64838888e-05 0. -4.89400634e-07 -4.89400634e-07
      -6.92590356e-06 -1.11586642e-05 -1.30605868e-05 -2.87116854e-05
      3.39165558e-06 1.29252044e-07 1.29252044e-07 1.29252044e-07
      1.29252044e-07 5.23698247e-07 6.18652678e-07 6.18652678e-07
      2.09366294e-06 2.09366294e-06 2.19977992e-05 2.05227880e-05
      1.40113516e-05 1.40113516e-05 1.40113516e-05 1.66941682e-05
      1.66941682e-05 1.66941682e-05 1.83541706e-05 1.83541706e-05
      1.87486166e-05 1.87486166e-05 1.87486166e-05 2.52350383e-05
      2.52350383e-05 2.52350383e-05 2.21577757e-05 2.99724525e-05
      3.15223988e-05 3.15223988e-05 3.64838888e-05 3.64838888e-05
      3.64838888e-05 0. 0. -4.89400634e-07 -6.92590356e-06
      -1.27237126e-05 -1.30605868e-05 -2.66058123e-05 7.77220430e-06
      3.39165558e-06 1.29252044e-07 1.29252044e-07 1.29252044e-07
      5.23698247e-07 6.18652678e-07 6.18652678e-07 6.18652678e-07
      2.09366294e-06 -1.40916445e-05 2.05227880e-05 1.40113516e-05
      1.40113516e-05 1.40113516e-05 1.66941682e-05 1.66941682e-05
      8.34235470e-06 1.00023562e-05 1.00023562e-05 1.32183295e-05
      1.97047520e-05 2.00416271e-05 2.52350383e-05 2.84974431e-05
      2.53252256e-05 2.54050774e-05 3.00473876e-05 3.15223988e-05
      3.15223988e-05 3.64838888e-05 3.64838888e-05 0. 0. 0.
      -4.89400634e-07 -5.45089324e-06 -8.47584852e-06 -1.27237126e-05
      -2.66058123e-05 7.77220430e-06 3.39165558e-06 1.29252044e-07
      1.29252044e-07 1.29252044e-07 5.23698247e-07 6.18652678e-07
      6.18652678e-07 6.18652678e-07 2.09366294e-06 -1.42208964e-05
      1.24361695e-05 5.53028622e-06 5.53028622e-06 5.53028622e-06
      8.21310277e-06 2.68281610e-06 2.68281610e-06 4.34281856e-06
      1.08292415e-05 1.95755001e-05 1.95755001e-05 1.99123751e-05
      2.52909285e-05 2.36309261e-05 2.36309261e-05 2.52758255e-05
      2.56702715e-05 3.13931450e-05 2.49067216e-05 3.19740902e-05
      3.63546387e-05 -1.29252044e-07 0. 0. -4.89400634e-07
      -5.45089324e-06 -8.47584852e-06 -1.30605868e-05 9.87807834e-06
      7.77220430e-06 3.39165558e-06 1.29252044e-07 1.29252044e-07
      1.29252044e-07 5.23698247e-07 6.18652678e-07 6.18652678e-07
      6.18652678e-07 2.09366294e-06 -2.80080421e-05 -3.11279509e-05 0.
      0. 0. 0. 2.68281610e-06 2.68281610e-06 9.16923909e-06
      9.26419398e-06 1.91810541e-05 1.76160065e-05 1.51751110e-05
      2.03685231e-05 2.36309261e-05 2.51808706e-05 2.51808706e-05
      1.91838481e-05 2.49067216e-05 2.49067216e-05 -4.50980042e-06
      -1.29252044e-07 -1.29252044e-07 -1.29252044e-07 -1.29252044e-07
      -3.94446175e-07 -5.45089324e-06 -8.47584852e-06 -1.03777711e-05
      9.87807834e-06 7.77220430e-06 3.39165558e-06 1.29252044e-07
      1.29252044e-07 1.29252044e-07 1.29252044e-07 5.23698247e-07
      6.18652678e-07 6.18652678e-07 2.09366294e-06 -2.46163854e-05
      8.84254860e-06 3.88105627e-06 3.39165558e-06 1.29252044e-07
      1.29252044e-07 4.36201299e-06 4.36201299e-06 8.74256148e-06
      9.29849102e-06 6.61567492e-06 1.49674879e-05 1.53043620e-05
      2.37601780e-05 2.37601780e-05 1.88236991e-05 -1.76601898e-05
      -1.75652367e-05 -1.41307319e-05 -1.14479153e-05 -4.38054849e-06 0.
      0. 0. 0. 0. -5.45089324e-06 -8.47584852e-06 2.61061195e-05
      9.87807834e-06 7.77220430e-06 3.39165558e-06 1.29252044e-07
      1.29252044e-07 1.29252044e-07 1.29252044e-07 5.23698247e-07
      5.23698247e-07 6.18652678e-07 3.64360767e-06 -2.47456373e-05
      1.01883070e-05 5.22681466e-06 3.26240342e-06 0. 0. 1.54994473e-06
      4.23276106e-06 5.93049299e-06 6.48642299e-06 1.48382360e-05
      1.48382360e-05 1.51751110e-05 -2.26017910e-05 -1.93393880e-05
      -1.77894417e-05 -1.77894417e-05 -1.77894417e-05 -1.42599838e-05
      -1.15771672e-05 -4.50980042e-06 -1.29252044e-07 -1.29252044e-07
      -1.29252044e-07 -1.29252044e-07 -1.29252044e-07 -5.48519074e-06
      2.78787902e-05 2.59768676e-05 1.24316430e-05 7.64295146e-06
      3.26240342e-06 0. 0. 0. 0. 3.94446175e-07 3.94446175e-07
      2.03934542e-06 3.51435574e-06 -2.47456373e-05 1.01883070e-05
      5.22681466e-06 3.65684969e-06 3.26240342e-06 1.54994473e-06
      4.81234838e-06 1.54994473e-06 1.54994473e-06 8.03636794e-06
      1.48382360e-05 8.35181345e-06 8.68868756e-06 -2.26017910e-05
      -1.93393880e-05 -1.77894417e-05 -1.77894417e-05 -1.77894417e-05
      -1.42599838e-05 -1.42599838e-05 -1.14280228e-05 -3.39165558e-06
      -1.29252044e-07 -1.29252044e-07 3.63546387e-05 3.63546387e-05
      3.09987008e-05 2.78787902e-05 2.59768676e-05 1.24316430e-05
      1.03257680e-05 3.26240342e-06 0. 0. 0. 0. 0. 3.94446175e-07
      1.94439099e-06 -3.44445434e-05 -2.47456373e-05 -2.62955837e-05
      5.22681466e-06 3.65684969e-06 3.26240342e-06 3.26240342e-06
      1.54994473e-06 1.54994473e-06 1.54994473e-06 1.54994473e-06 0.
      8.35181345e-06 8.68868756e-06 -2.26017910e-05 -2.26017910e-05
      -2.26017910e-05 -2.10518465e-05 -2.10518465e-05 -1.94667791e-05
      -1.90723313e-05 -1.41108394e-05 -3.39165558e-06 -1.29252044e-07
      -1.29252044e-07 -1.29252044e-07 -1.29252044e-07 3.09987008e-05
      2.78787902e-05 2.59768676e-05 1.24316430e-05 1.03257680e-05
      7.64295146e-06 0. 0. 0. 0. 0. 3.94446175e-07 1.94439099e-06
      -3.44445434e-05 -2.31805898e-05 1.01883070e-05 1.01883070e-05
      3.75180412e-06 3.75180412e-06 4.81234838e-06 1.54994473e-06
      1.54994473e-06 1.54994473e-06 1.54994473e-06 1.54994473e-06
      8.35181345e-06 8.68868756e-06 -2.26017910e-05 -2.26017910e-05
      -2.26017910e-05 -2.26017910e-05 -2.26017910e-05 -2.10367434e-05
      -1.90723313e-05 -1.41108394e-05 -3.39165558e-06 -3.39165558e-06
      -1.29252044e-07 -1.29252044e-07 -1.29252044e-07 -5.09074471e-06
      -8.51014556e-06 2.59768676e-05 1.24316430e-05 1.24316430e-05
      1.03257680e-05 0. 0. 0. 0. 0. 0. 1.94439099e-06 -3.44445434e-05
      -2.47305361e-05 1.01883070e-05 1.01883070e-05 3.75180412e-06
      3.75180412e-06 4.81234838e-06 4.81234838e-06 1.54994473e-06
      1.54994473e-06 1.54994473e-06 1.54994473e-06 8.68868756e-06
      8.68868756e-06 8.68868756e-06 -2.26017910e-05 -2.26017910e-05
      -2.26017910e-05 -2.26017910e-05 -2.10367434e-05 -1.90723313e-05
      -1.41108394e-05 -1.04550199e-05 -3.39165558e-06 -1.29252044e-07
      -1.29252044e-07 -1.29252044e-07 -5.09074471e-06 -7.03513570e-06
      -1.05070230e-05 1.24316430e-05 1.24316430e-05 1.03257680e-05 0. 0.
      0. 0. 0. 0. 1.94439099e-06 -3.45394983e-05 -2.62955837e-05
      1.01883070e-05 1.01883070e-05 3.75180412e-06 3.75180412e-06
      5.30174884e-06 5.20679441e-06 1.54994473e-06 1.54994473e-06
      1.54994473e-06 9.90175795e-06 8.35181345e-06 8.68868756e-06
      8.68868756e-06 1.38820997e-05 1.38820997e-05 1.38820997e-05
      1.38820997e-05 1.54471472e-05 1.73166045e-05 2.23730513e-05
      -1.04550199e-05 -3.39165558e-06 -1.29252044e-07 -1.29252044e-07
      -1.29252044e-07 -5.09074471e-06 -7.03513570e-06 -1.04120681e-05
      -2.40522477e-05 1.24316430e-05 1.03257680e-05 2.68281610e-06 0. 0.
      0. 0. 1.54994473e-06 1.94439099e-06 -3.45394983e-05
      -2.62955837e-05 1.01883070e-05 1.01883070e-05 3.75180412e-06
      3.75180412e-06 5.20679441e-06 1.94439099e-06 1.54994473e-06
      1.54994473e-06 1.54994473e-06 9.90175795e-06 8.35181345e-06
      8.68868756e-06 8.68868756e-06 1.38820997e-05 1.38820997e-05
      1.38820997e-05 1.38820997e-05 1.54471472e-05 1.69221566e-05
      2.23730513e-05 2.60288707e-05 3.04094192e-05 -1.29252044e-07
      -1.29252044e-07 -1.29252044e-07 -5.09074471e-06 -6.64068921e-06
      -1.04120681e-05 -1.88588365e-05 -2.40522477e-05 1.03257680e-05
      2.68281610e-06 0. 0. 0. 0. 1.54994473e-06 1.54994473e-06
      -3.45394983e-05 1.01883070e-05 1.01883070e-05 1.01883070e-05
      3.75180412e-06 3.75180412e-06 5.20679441e-06 4.81234838e-06
      1.54994473e-06 1.54994473e-06 1.54994473e-06 1.54994473e-06
      8.35181345e-06 8.68868756e-06 8.68868756e-06 1.38820997e-05
      1.38820997e-05 1.38820997e-05 1.38820997e-05 1.54471472e-05
      1.69221566e-05 2.22780964e-05 2.39229958e-05 3.04094192e-05
      3.63546387e-05 -1.29252044e-07 -1.29252044e-07 -5.09074471e-06
      -6.64068921e-06 -1.04120681e-05 -1.87638816e-05 -2.40522477e-05
      1.03257680e-05 2.68281610e-06 2.68281610e-06 0. 0. 0.
      1.54994473e-06 1.54994473e-06 -3.49339462e-05 1.01883070e-05
      1.01883070e-05 1.01883070e-05 3.75180412e-06 3.75180412e-06
      5.30174884e-06 4.90730281e-06 1.54994473e-06 1.54994473e-06
      1.54994473e-06 9.90175795e-06 9.90175795e-06 8.68868756e-06
      8.68868756e-06 1.38820997e-05 1.38820997e-05 1.38820997e-05
      1.38820997e-05 1.54471472e-05 1.69221566e-05 2.22780964e-05
      2.39229958e-05 3.04094192e-05 3.36718222e-05 -1.29252044e-07
      -1.29252044e-07 -5.09074471e-06 -6.64068921e-06 -1.04120681e-05
      -1.87638816e-05 -2.40522477e-05 -2.61581226e-05 2.68281610e-06
      2.68281610e-06 2.68281610e-06 0. 0. 1.54994473e-06 1.54994473e-06
      1.54994473e-06 1.01883070e-05 1.01883070e-05 1.01883070e-05
      3.75180412e-06 3.75180412e-06 5.30174884e-06 1.64489916e-06
      1.54994473e-06 1.54994473e-06 1.54994473e-06 0. 8.35181345e-06
      8.68868756e-06 8.68868756e-06 1.38820997e-05 1.38820997e-05
      1.38820997e-05 1.38820997e-05 1.54471472e-05 1.69221566e-05
      2.22780964e-05 2.39229958e-05 3.04094192e-05 3.36718222e-05
      -2.81206826e-06 -1.29252044e-07 -5.09074471e-06 -6.64068921e-06
      -1.04120681e-05 -2.39572928e-05 -2.40522477e-05 1.03257680e-05
      2.68281610e-06 2.68281610e-06 2.68281610e-06 0. 0. 1.54994473e-06
      1.54994473e-06 1.54994473e-06 1.17533546e-05 1.01883070e-05
      1.01883070e-05 3.75180412e-06 3.75180412e-06 5.30174884e-06
      1.54994473e-06 1.54994473e-06 1.54994473e-06 1.54994473e-06
      1.54994473e-06 8.35181345e-06 8.68868756e-06 8.68868756e-06
      1.38820997e-05 1.38820997e-05 1.38820997e-05 1.38820997e-05
      1.54471472e-05 1.69221566e-05 2.18836503e-05 2.38280409e-05
      2.60288707e-05 3.36718222e-05 -2.81206826e-06 -1.29252044e-07
      -5.09074471e-06 -6.64068921e-06 -8.45257455e-06 -1.87638816e-05
      -2.39572928e-05 1.03257680e-05 1.03257680e-05 2.68281610e-06
      2.68281610e-06 2.68281610e-06 0. 0. 1.54994473e-06 1.54994473e-06
      1.17382515e-05 1.17382515e-05 1.17382515e-05 5.30174884e-06
      5.30174884e-06 5.30174884e-06 1.54994473e-06 1.54994473e-06
      1.54994473e-06 1.54994473e-06 0. 8.35181345e-06 8.68868756e-06
      8.68868756e-06 1.38820997e-05 1.38820997e-05 1.38820997e-05
      1.38820997e-05 1.38820997e-05 1.69221566e-05 2.18836503e-05
      2.38280409e-05 2.60288707e-05 3.36718222e-05 -2.81206826e-06
      -2.81206826e-06 -5.09074471e-06 -6.64068921e-06 -8.45257455e-06
      -1.87638816e-05 -2.39572928e-05 1.03257680e-05 1.03257680e-05
      2.68281610e-06 2.68281610e-06 2.68281610e-06 0. 0. 1.54994473e-06
      1.54994473e-06 1.17382515e-05 1.17382515e-05 1.17382515e-05
      5.30174884e-06 5.30174884e-06 5.30174884e-06 1.94439099e-06
      1.54994473e-06 1.54994473e-06 1.54994473e-06 0. 8.35181345e-06
      8.68868756e-06 8.68868756e-06 1.38820997e-05 1.38820997e-05
      1.38820997e-05 1.38820997e-05 1.38820997e-05 1.69221566e-05
      2.18836503e-05 2.38280409e-05 2.59339158e-05 -2.81206826e-06
      -2.81206826e-06 -2.81206826e-06 -5.09074471e-06 -6.97756423e-06
      -8.45257455e-06 -1.87638816e-05 -2.39572928e-05 1.25265969e-05
      1.03257680e-05 2.68281610e-06 2.68281610e-06 2.68281610e-06
      2.68281610e-06 0. 1.54994473e-06 1.54994473e-06 1.17382515e-05
      1.17382515e-05 1.17382515e-05 6.77675916e-06 5.30174884e-06
      2.03934542e-06 2.03934542e-06 1.54994473e-06 1.54994473e-06
      -3.49339462e-05 -2.81320772e-05 -2.81320772e-05 8.68868756e-06
      8.68868756e-06 1.38820997e-05 1.38820997e-05 1.38820997e-05
      1.38820997e-05 1.38820997e-05 1.54471472e-05 2.18836503e-05
      -1.30502949e-05 -1.05499748e-05 -2.81206826e-06 -2.81206826e-06
      -2.81206826e-06 -7.77356126e-06 -6.64068921e-06 -6.97756423e-06
      -2.39572928e-05 -3.04437162e-05 6.04017441e-06 5.94521953e-06
      2.68281610e-06 2.68281610e-06 2.68281610e-06 2.68281610e-06 0.
      1.54994473e-06 1.54994473e-06 1.17382515e-05 1.01883070e-05
      1.01883070e-05 5.22681466e-06 3.75180412e-06 4.89400634e-07
      2.03934542e-06 1.54994473e-06 1.54994473e-06 -3.64838888e-05
      -3.64838888e-05 -2.81320772e-05 -2.77952022e-05 -2.77952022e-05
      -2.26017910e-05 1.38820997e-05 1.38820997e-05 1.38820997e-05
      1.38820997e-05 1.54471472e-05 -1.46002403e-05 -1.30502949e-05
      -1.05499748e-05 -2.90702269e-06 -2.81206826e-06 -2.81206826e-06
      -1.21541088e-05 -1.61468033e-05 -1.34639868e-05 -2.48558590e-05
      6.04017441e-06 6.04017441e-06 5.94521953e-06 2.68281610e-06 0. 0.
      0. 0. 1.54994473e-06 1.54994473e-06 6.53145753e-06 1.01883070e-05
      1.01883070e-05 5.22681466e-06 1.96441101e-06 4.89400634e-07
      1.94439099e-06 1.54994473e-06 1.54994473e-06 -3.64838888e-05
      -3.64838888e-05 -2.81320772e-05 -2.77952022e-05 -2.77952022e-05
      -2.26017910e-05 -2.26017910e-05 -2.26017910e-05 -2.26017910e-05
      -2.26017910e-05 -2.10367434e-05 -1.46002403e-05 -1.30502949e-05
      -1.26558489e-05 -7.28757095e-06 -9.29849102e-06 -9.29849102e-06
      -1.42599838e-05 -1.58099283e-05 -1.34639868e-05 -2.48558590e-05
      6.04017441e-06 3.35735808e-06 3.35735808e-06 0. 0. 0. 0. 0.
      1.54994473e-06 1.54994473e-06 6.43650310e-06 6.92590356e-06
      6.92590356e-06 1.96441101e-06 1.96441101e-06 3.94446175e-07 0.
      1.54994473e-06 0. -3.64838888e-05 -3.64838888e-05 -2.81320772e-05
      -2.77952022e-05 -2.77952022e-05 -2.26017910e-05 -2.26017910e-05
      -2.26017910e-05 -2.26017910e-05 -2.26017910e-05 -2.10367434e-05
      -1.46002403e-05 -1.30502949e-05 -1.26558489e-05 -9.39344591e-06
      -9.29849102e-06 -9.29849102e-06 -1.42599838e-05 -1.58099283e-05
      -1.61468033e-05 8.94521600e-06 3.35735808e-06 3.35735808e-06
      3.35735808e-06 0. 0. 0. 0. 0. 0. 1.54994473e-06 6.43650310e-06
      6.43650310e-06 6.83094913e-06 1.86945658e-06 1.86945658e-06 0. 0.
      0. 0. -3.64838888e-05 -3.64838888e-05 -2.77952022e-05
      -2.77952022e-05 -2.77952022e-05 -2.26017910e-05 -2.26017910e-05
      -2.26017910e-05 -2.26017910e-05 -2.26017910e-05 -2.10367434e-05
      -1.46002403e-05 -1.30502949e-05 -1.30502949e-05 -9.39344591e-06
      -9.39344591e-06 -9.29849102e-06 -1.42599838e-05 -1.61468033e-05
      2.03370873e-05 8.94521600e-06 3.75180412e-06 3.35735808e-06
      3.35735808e-06 9.49544727e-08 0. 0. 0. 0. 0. 0. 6.43650310e-06
      6.43650310e-06 6.43650310e-06 1.47501032e-06 1.47501032e-06 0. 0.
      0. 0. 0. -3.64838888e-05 -2.81320772e-05 -2.77952022e-05
      -2.77952022e-05 -2.26017910e-05 -2.26017910e-05 -2.26017910e-05
      -2.26017910e-05 -2.26017910e-05 -2.10367434e-05 -1.46002403e-05
      -1.30502949e-05 -1.30502949e-05 -1.26558489e-05 -9.39344591e-06
      2.71853987e-05 2.22239069e-05 2.03370873e-05 1.04202263e-05
      8.94521600e-06 3.75180412e-06 3.35735808e-06 3.35735808e-06
      9.49544727e-08 0. 0. 0. 0. 0. 0. 6.43650310e-06 6.43650310e-06
      6.43650310e-06 1.47501032e-06 1.47501032e-06 0. 0. 0. 0. 0. 0. 0.
      -3.61470156e-05 -2.77952022e-05 -2.77952022e-05 -2.77952022e-05
      -2.26017910e-05 -2.26017910e-05 -2.26017910e-05 -2.26017910e-05
      -1.61652879e-05 -1.46153434e-05 -1.46153434e-05 2.22629933e-05
      2.55253963e-05 2.03319851e-05 1.51285722e-05 5.22681466e-06
      5.22681466e-06 3.75180412e-06 3.75180412e-06 3.35735808e-06
      3.35735808e-06 9.49544727e-08 0. 0. 0. 0. 0. 0. 6.43650310e-06
      6.43650310e-06 6.43650310e-06 1.47501032e-06 1.47501032e-06 0. 0.
      0. 0. 0. 0. 0. 0. 0. 0. 0. 0. 0. 0. 0. 6.43650310e-06
      7.98644760e-06 7.98644760e-06 8.38089363e-06 1.16432975e-05
      1.16432975e-05 6.68180473e-06 5.22681466e-06 5.22681466e-06
      3.75180412e-06 3.65684969e-06 3.26240342e-06 3.26240342e-06 0. 0.
      1.56504768e-06 1.56504768e-06 1.56504768e-06 1.56504768e-06
      1.56504768e-06 6.43650310e-06 6.43650310e-06 6.43650310e-06
      1.47501032e-06 1.47501032e-06 0. 0. 0. 0. 0. 0. 0. 0. 0. 0. 0. 0.
      0. 0. 0. 4.96149278e-06 7.98644760e-06 7.98644760e-06
      7.98644760e-06 1.16432975e-05 1.16432975e-05 6.68180473e-06
      5.13186023e-06 5.13186023e-06 4.73741375e-06 3.26240342e-06
      4.82745145e-06 4.82745145e-06 1.56504768e-06 1.56504768e-06
      1.56504768e-06 1.56504768e-06 1.56504768e-06 1.66000223e-06
      1.66000223e-06 6.43650310e-06 6.43650310e-06 6.43650310e-06
      1.47501032e-06 1.47501032e-06 0. 0. 0. 0. 0. 0. 0. 0. 0. 0. 0. 0.
      0. 0. 0. 4.96149278e-06 7.98644760e-06 7.98644760e-06
      7.98644760e-06 7.98644760e-06 1.12488515e-05 6.28735870e-06
      4.73741375e-06 4.73741375e-06 4.73741375e-06 4.82745145e-06
      4.82745145e-06 1.56504768e-06 1.56504768e-06 1.66000223e-06
      1.66000223e-06 1.66000223e-06 1.66000223e-06 2.05444849e-06
      2.05444849e-06</_>
    <_>
      0. 0. 0. 0. 0. 1.74610807e-06 1.74610807e-06 0. 0. 0. 0. 0. 0. 0.
      0. 0. 0. 0. 4.30480941e-06 4.30480941e-06 4.30480941e-06
      4.30480941e-06 4.30480941e-06 4.30480941e-06 4.30480941e-06
      4.30480941e-06 4.30480941e-06 4.30480941e-06 4.30480941e-06
      4.30480941e-06 4.30480941e-06 4.30480941e-06 4.30480941e-06
      4.30480941e-06 4.30480941e-06 4.84200291e-06 4.84200291e-06
      4.84200291e-06 4.84200291e-06 4.84200291e-06 2.87236253e-06 0. 0.
      0. 1.60831280e-06 0. 0. 0. 0. 0. 0. 0. 0. 2.87236253e-06
      4.48067522e-06 4.48067522e-06 4.48067522e-06 4.48067522e-06
      8.78548508e-06 8.78548508e-06 8.78548508e-06 7.17717194e-06
      7.17717194e-06 4.30480941e-06 4.30480941e-06 4.30480941e-06
      4.30480941e-06 4.30480941e-06 4.30480941e-06 4.30480941e-06
      4.30480941e-06 4.30480941e-06 4.30480941e-06 4.30480941e-06
      4.30480941e-06 4.84200291e-06 4.84200291e-06 4.84200291e-06
      4.84200291e-06 4.84200291e-06 2.87236253e-06 0. 0. 8.22972993e-07
      1.60831280e-06 0. 0. 0. 0. 0. 0. 1.54543798e-07 3.02690637e-06
      3.02690637e-06 5.45819194e-06 5.80232927e-06 5.80232927e-06
      5.80232927e-06 5.45819194e-06 9.60845773e-06 9.60845773e-06
      9.60845773e-06 8.78548508e-06 7.17717194e-06 7.17717194e-06
      4.30480941e-06 4.30480941e-06 4.30480941e-06 5.37193387e-07
      6.45031560e-06 4.30480941e-06 4.84200291e-06 7.17717194e-06
      4.84200291e-06 4.30480941e-06 4.84200291e-06 4.84200291e-06
      4.84200291e-06 4.84200291e-06 5.37193387e-07 7.48881712e-06
      4.61645459e-06 4.61645459e-06 7.04774038e-06 7.04774038e-06
      4.61645459e-06 4.61645459e-06 4.61645459e-06 4.77099866e-06
      4.77099866e-06 4.77099866e-06 5.35697973e-06 8.57347914e-06
      -2.89472046e-05 -2.65159179e-05 -1.70360108e-05 -1.47724259e-05
      -1.47724259e-05 -1.35635109e-05 -1.35635109e-05 -1.35635109e-05
      -1.31808611e-05 -1.35249984e-05 -1.41109795e-05 -2.49069744e-05
      8.02601062e-06 8.02601062e-06 5.15364809e-06 5.15364809e-06
      5.15364809e-06 6.76196078e-06 1.12317434e-06 1.12317434e-06
      2.87236253e-06 3.40955580e-06 5.37193387e-07 5.37193387e-07
      5.37193387e-07 5.37193387e-07 5.37193387e-07 4.61645459e-06
      4.61645459e-06 4.61645459e-06 7.04774038e-06 7.04774038e-06
      4.61645459e-06 4.77099866e-06 4.77099866e-06 4.77099866e-06
      5.30819170e-06 -3.83688784e-05 -2.89472046e-05 -2.89472046e-05
      -1.55953985e-05 -1.30263179e-05 -1.30263179e-05 -7.82024836e-06
      -7.82024836e-06 -7.82024836e-06 -7.82024836e-06 -7.82024836e-06
      -7.97479152e-06 -7.97479152e-06 -1.31808611e-05 -1.35249984e-05
      -1.35249984e-05 -2.47691805e-05 8.02601062e-06 8.02601062e-06
      5.15364809e-06 5.15364809e-06 6.76196078e-06 6.76196078e-06
      5.15364809e-06 5.73962916e-06 8.61199169e-06 8.02601062e-06
      8.02601062e-06 5.15364809e-06 5.15364809e-06 4.61645459e-06
      4.61645459e-06 7.04774038e-06 7.04774038e-06 7.04774038e-06
      4.61645459e-06 4.77099866e-06 4.77099866e-06 5.30819170e-06
      1.16156589e-05 -3.18195671e-05 -1.72037107e-05 -1.27979856e-05
      -5.16062983e-06 -5.16062983e-06 -5.16062983e-06 -5.16062983e-06
      -5.16062983e-06 -5.69782333e-06 -5.16062983e-06 -5.16062983e-06
      -7.97479152e-06 -7.97479152e-06 -7.97479152e-06 -7.97479152e-06
      -8.31892885e-06 -1.35249984e-05 -2.41831985e-05 8.02601062e-06
      8.02601062e-06 5.15364809e-06 5.15364809e-06 5.15364809e-06
      6.76196078e-06 5.15364809e-06 5.15364809e-06 5.15364809e-06
      8.61199169e-06 8.61199169e-06 8.02601062e-06 4.61645459e-06
      4.61645459e-06 7.04774038e-06 7.04774038e-06 6.22476773e-06
      4.61645459e-06 4.61645459e-06 5.15364809e-06 5.49778542e-06
      1.42752770e-05 3.12232223e-05 -7.59191562e-06 -1.04642786e-05
      -8.03299281e-06 -8.03299281e-06 -9.64130504e-06 -9.64130504e-06
      -8.03299281e-06 -5.16062983e-06 -5.69782333e-06 -5.16062983e-06
      -5.16062983e-06 -5.31517389e-06 -5.31517389e-06 -3.66998211e-06
      -3.66998211e-06 -4.01411944e-06 -1.35249984e-05 -2.41831985e-05
      8.61199169e-06 8.02601062e-06 5.15364809e-06 5.15364809e-06
      5.15364809e-06 5.15364809e-06 6.76196078e-06 5.15364809e-06
      5.15364809e-06 5.15364809e-06 5.15364809e-06 4.61645459e-06
      7.04774038e-06 7.04774038e-06 7.04774038e-06 4.77099866e-06
      4.77099866e-06 4.77099866e-06 7.43061673e-06 7.62021000e-06
      1.58668408e-05 -1.06188218e-05 -1.06188218e-05 -9.79584911e-06
      -9.79584911e-06 -9.60845773e-06 -9.60845773e-06 -9.60845773e-06
      -9.60845773e-06 -4.48067522e-06 -5.01786872e-06 -3.40955580e-06 0.
      -8.55820304e-07 -1.01036414e-06 -1.01036414e-06 -1.01036414e-06
      -4.01411944e-06 -4.01411944e-06 -1.16514748e-05 -2.93582962e-05
      1.29168011e-05 5.15364809e-06 5.15364809e-06 5.15364809e-06
      5.15364809e-06 5.15364809e-06 5.15364809e-06 6.76196078e-06
      5.15364809e-06 5.15364809e-06 1.60831280e-06 2.43128579e-06
      2.43128579e-06 2.43128579e-06 1.54543798e-07 2.81416192e-06
      3.35135519e-06 3.35135519e-06 3.15829902e-06 9.70760993e-06
      -1.47621058e-05 -1.55026300e-05 -1.49654379e-05 -1.49654379e-05
      2.90557691e-05 2.90557691e-05 3.30164403e-05 3.33605785e-05
      3.33605785e-05 3.79770318e-05 -5.99538544e-06 -5.17241233e-06
      -1.54543798e-07 -1.54543798e-07 -1.54543798e-07 -1.01036414e-06
      -1.01036414e-06 -4.01411944e-06 -9.22018899e-06 -1.98783891e-05
      1.29168011e-05 1.29168011e-05 9.45845750e-06 5.15364809e-06
      5.15364809e-06 5.15364809e-06 5.15364809e-06 5.49778542e-06
      5.49778542e-06 9.42157931e-06 1.60831280e-06 2.43128579e-06
      2.43128579e-06 1.60831280e-06 2.81416192e-06 2.81416192e-06
      2.81416192e-06 3.35135519e-06 4.20717561e-06 1.21062067e-05
      2.90557691e-05 -1.55026300e-05 2.85185761e-05 2.22111084e-05
      2.22111084e-05 1.47724259e-05 7.82024836e-06 7.82024836e-06
      7.82024836e-06 7.82024836e-06 1.33704552e-05 2.33434766e-05
      -8.18055469e-06 -4.77099866e-06 -4.77099866e-06 -4.77099866e-06
      -5.62681862e-06 -5.62681862e-06 -8.63057448e-06 -2.22312592e-05
      1.00464549e-05 8.30034696e-06 5.42798398e-06 9.45845750e-06
      5.15364809e-06 5.15364809e-06 5.49778542e-06 5.49778542e-06
      6.35360584e-06 7.81326617e-06 2.43128579e-06 2.43128579e-06
      2.43128579e-06 0. 2.65961808e-06 2.81416192e-06 2.81416192e-06
      4.05263154e-06 4.05263154e-06 1.03600987e-05 2.33125047e-05
      2.25552449e-05 2.22111084e-05 5.26154645e-06 8.55820304e-07
      5.16062983e-06 5.16062983e-06 5.16062983e-06 5.16062983e-06
      7.82024836e-06 7.82024836e-06 8.16438478e-06 2.17519137e-05
      -8.07479864e-06 -4.61645459e-06 -4.77099866e-06 -4.77099866e-06
      -5.62681862e-06 -5.97095595e-06 -1.54449572e-05 1.00464549e-05
      8.30034696e-06 8.30034696e-06 4.84200291e-06 4.84200291e-06
      5.37193387e-07 8.81330550e-07 8.81330550e-07 1.73715091e-06
      6.35360584e-06 2.43128579e-06 2.43128579e-06 2.43128579e-06 0. 0.
      2.65961808e-06 3.51543827e-06 4.05263154e-06 4.05263154e-06
      3.85957537e-06 2.25552449e-05 1.95514895e-05 8.55820304e-07
      8.55820304e-07 8.55820304e-07 5.16062983e-06 5.16062983e-06
      5.16062983e-06 5.16062983e-06 5.16062983e-06 5.16062983e-06
      8.70157874e-06 1.42822591e-05 -8.61199169e-06 -4.61645459e-06
      -4.61645459e-06 -4.77099866e-06 -4.77099866e-06 -5.97095595e-06
      -1.38366440e-05 1.00464549e-05 8.30034696e-06 8.30034696e-06
      5.42798398e-06 4.84200291e-06 4.84200291e-06 8.81330550e-07
      8.81330550e-07 1.73715091e-06 4.00073532e-06 4.69487031e-06
      2.43128579e-06 1.60831280e-06 0. 0. 0. 2.65961808e-06
      3.51543827e-06 3.51543827e-06 3.51543827e-06 2.60192837e-06
      8.55820304e-07 8.55820304e-07 0. 0. 4.30480941e-06 4.30480941e-06
      4.30480941e-06 4.30480941e-06 4.30480941e-06 4.30480941e-06
      5.16062983e-06 1.46649081e-05 -1.03580996e-05 -5.15364809e-06
      -4.61645459e-06 -4.61645459e-06 -4.77099866e-06 -5.11513554e-06
      -1.27853382e-05 1.00464549e-05 8.30034696e-06 8.45489012e-06
      5.58252759e-06 4.99654698e-06 4.99654698e-06 6.91737171e-07
      1.03587433e-06 1.03587433e-06 9.36134893e-06 -2.46403579e-05
      2.43128579e-06 0. 0. 0. 0. 2.65961808e-06 3.51543827e-06
      8.55820304e-07 8.55820304e-07 8.55820304e-07 0. 0. 0. 0.
      4.30480941e-06 4.30480941e-06 4.30480941e-06 4.30480941e-06
      4.30480941e-06 0. 0. -3.63207255e-05 -9.50724552e-06
      -9.45845750e-06 -9.45845750e-06 -8.92126445e-06 -8.92126445e-06
      -4.96059192e-06 -1.27853382e-05 1.00464549e-05 8.30034696e-06
      7.76315301e-06 4.89079048e-06 4.30480941e-06 4.84200291e-06
      4.84200291e-06 8.81330550e-07 8.81330550e-07 9.20680486e-06
      -2.42962215e-05 1.60831280e-06 4.30480941e-06 0. 0. 0. 0.
      2.65961808e-06 8.55820304e-07 8.55820304e-07 0. 0. 0. 0. 0.
      4.30480941e-06 4.30480941e-06 4.30480941e-06 0. 0. 0. 0.
      -3.33046482e-05 -9.50724552e-06 -9.45845750e-06 -9.45845750e-06
      -9.45845750e-06 -9.45845750e-06 -9.80259483e-06 2.57457086e-05
      9.50926096e-06 7.76315301e-06 7.76315301e-06 4.89079048e-06
      4.30480941e-06 4.30480941e-06 4.30480941e-06 3.44137192e-07
      8.81330550e-07 8.35098490e-06 -2.42962215e-05 -4.40212061e-05
      4.30480941e-06 4.30480941e-06 4.30480941e-06 0. 0. 0. 0. 0. 0. 0.
      0. 0. 0. 0. 0. 0. 0. 0. -4.40212061e-05 -4.34840113e-05
      -1.47687915e-05 -8.92126445e-06 -8.92126445e-06 -8.92126445e-06
      -8.92126445e-06 -8.92126445e-06 -9.80259483e-06 2.34821237e-05
      7.76315301e-06 7.76315301e-06 4.89079048e-06 4.89079048e-06
      4.30480941e-06 8.92126445e-06 8.92126445e-06 9.26540179e-06
      5.49778542e-06 2.24473479e-05 -2.42962215e-05 4.30480941e-06
      4.30480941e-06 4.30480941e-06 4.30480941e-06 0. 0. 0. 0. 0. 0. 0.
      0. 0. 0. 0. -4.40212061e-05 -4.40212061e-05 -4.40212061e-05
      -4.40212061e-05 -4.11488436e-05 -3.18728962e-05 -1.24367025e-05
      -8.92126445e-06 -8.92126445e-06 -8.92126445e-06 -8.92126445e-06
      -8.92126445e-06 3.42186104e-05 1.34908887e-05 1.23796081e-05
      1.23796081e-05 9.50724552e-06 8.92126445e-06 8.92126445e-06
      8.92126445e-06 8.92126445e-06 8.92126445e-06 4.96059192e-06
      2.24473479e-05 -2.67275063e-05 6.91253126e-06 4.30480941e-06
      4.30480941e-06 4.30480941e-06 4.30480941e-06 0. 0. 0. 0. 0. 0. 0.
      -4.40212061e-05 -4.40212061e-05 -4.40212061e-05 -4.40212061e-05
      -3.94047529e-05 -3.65323904e-05 -3.49240763e-05 -2.75517923e-05
      -9.56635631e-06 -5.16062983e-06 -4.30480941e-06 -4.30480941e-06
      -4.30480941e-06 -4.30480941e-06 3.97163967e-05 3.20206818e-05
      1.34908887e-05 1.23796081e-05 9.50724552e-06 9.50724552e-06
      8.92126445e-06 8.92126445e-06 8.92126445e-06 8.92126445e-06
      8.92126445e-06 4.96059192e-06 2.84106773e-05 -2.21110531e-05
      7.22417644e-06 8.92126445e-06 8.92126445e-06 8.92126445e-06
      8.92126445e-06 4.61645459e-06 4.61645459e-06 4.61645459e-06
      4.61645459e-06 4.61645459e-06 4.61645459e-06 4.61645459e-06
      -3.65323904e-05 -3.65323904e-05 -3.65323904e-05 -3.65323904e-05
      -3.43380962e-05 -3.35151235e-05 -3.35151235e-05 -9.56635631e-06
      -7.82024836e-06 -4.30480941e-06 -4.30480941e-06 3.97163967e-05
      3.97163967e-05 3.97163967e-05 3.91792018e-05 1.43138614e-05
      1.15902367e-05 9.50724552e-06 9.50724552e-06 8.92126445e-06
      8.92126445e-06 8.92126445e-06 8.92126445e-06 8.92126445e-06
      8.92126445e-06 4.96059192e-06 -1.56105289e-05 -2.15738582e-05
      -3.67970315e-05 8.92126445e-06 8.92126445e-06 8.92126445e-06
      8.92126445e-06 4.61645459e-06 4.61645459e-06 7.48881712e-06
      7.48881712e-06 7.48881712e-06 7.48881712e-06 7.48881712e-06
      -3.43380962e-05 -3.43380962e-05 -3.35151235e-05 -3.35151235e-05
      -3.35151235e-05 -2.75517923e-05 -9.56635631e-06 -7.82024836e-06
      -5.16062983e-06 -4.30480941e-06 -4.30480941e-06 -4.30480941e-06
      -4.30480941e-06 3.91792018e-05 2.37937693e-05 1.33363446e-05
      1.23796081e-05 9.50724552e-06 8.92126445e-06 8.92126445e-06
      8.92126445e-06 8.92126445e-06 8.92126445e-06 8.92126445e-06
      8.92126445e-06 4.96059192e-06 -1.61477219e-05 -2.15738582e-05
      5.49778542e-06 8.92126445e-06 8.92126445e-06 8.92126445e-06
      1.17936270e-05 7.48881712e-06 7.48881712e-06 7.48881712e-06
      8.07479864e-06 9.68311087e-06 1.05060844e-05 1.05060844e-05
      -3.35151235e-05 -3.35151235e-05 -3.35151235e-05 -3.35151235e-05
      -2.75517923e-05 -9.91049274e-06 -7.82024836e-06 -5.16062983e-06
      -4.30480941e-06 -4.30480941e-06 -4.30480941e-06 -4.30480941e-06
      -4.84200291e-06 -1.82749864e-05 -3.06848633e-05 1.07344167e-05
      9.50724552e-06 8.92126445e-06 8.92126445e-06 8.92126445e-06
      8.92126445e-06 8.92126445e-06 8.92126445e-06 8.92126445e-06
      4.61645459e-06 4.96059192e-06 -1.53247493e-05 -2.15738582e-05
      5.49778542e-06 9.26540179e-06 1.17936270e-05 1.17936270e-05
      1.17936270e-05 8.07479864e-06 8.07479864e-06 9.68311087e-06
      1.05060844e-05 1.05060844e-05 1.05060844e-05 1.05060844e-05
      1.05060844e-05 -3.35151235e-05 -3.35151235e-05 -2.00821378e-05
      -9.91049274e-06 -7.82024836e-06 -7.82024836e-06 -4.30480941e-06
      -4.30480941e-06 -4.30480941e-06 -4.30480941e-06 -4.30480941e-06
      -1.00480729e-05 -3.05303183e-05 -3.53033320e-05 -3.50999435e-05
      8.92126445e-06 8.92126445e-06 8.92126445e-06 8.92126445e-06
      8.92126445e-06 8.92126445e-06 8.92126445e-06 8.92126445e-06
      4.61645459e-06 7.04774038e-06 -1.37164370e-05 -2.07180383e-05
      7.76136949e-06 1.21377643e-05 1.17936270e-05 1.23796081e-05
      1.23796081e-05 8.07479864e-06 9.68311087e-06 1.05060844e-05
      1.05060844e-05 1.05060844e-05 1.05060844e-05 1.05060844e-05
      1.05060844e-05 1.64694138e-05 2.39390683e-05 3.58568213e-05
      3.62009596e-05 3.62009596e-05 3.97163967e-05 3.97163967e-05
      -4.30480941e-06 -4.30480941e-06 -4.30480941e-06 -1.00480729e-05
      -3.34026809e-05 -3.58893121e-05 -3.50999435e-05 -3.50999435e-05
      -3.50999435e-05 8.92126445e-06 8.92126445e-06 8.92126445e-06
      8.92126445e-06 8.92126445e-06 8.92126445e-06 8.92126445e-06
      6.22476773e-06 7.04774038e-06 -1.37164370e-05 -2.07180383e-05
      1.06337320e-05 1.21377643e-05 1.23796081e-05 1.23796081e-05
      1.23796081e-05 1.23796081e-05 1.05060844e-05 1.05060844e-05
      1.05060844e-05 1.05060844e-05 1.05060844e-05 1.05060844e-05
      1.64694138e-05 3.34189754e-05 3.51650851e-05 3.62009596e-05
      3.62009596e-05 3.97163967e-05 3.97163967e-05 3.50999435e-05
      3.50999435e-05 2.70215096e-05 -2.82438778e-05 -3.86051142e-05
      -4.05057690e-05 -3.97163967e-05 -3.97163967e-05 -3.97163967e-05
      -3.97163967e-05 -3.97163967e-05 4.30480941e-06 4.30480941e-06
      4.30480941e-06 4.30480941e-06 4.30480941e-06 0. 2.43128579e-06
      2.43128579e-06 -1.86770285e-05 2.15590753e-05 4.60951333e-06
      8.64448339e-06 7.76315301e-06 7.76315301e-06 7.76315301e-06
      1.01944388e-05 5.88962939e-06 5.88962939e-06 5.88962939e-06
      5.88962939e-06 5.88962939e-06 1.18529588e-05 2.88025203e-05
      3.05486283e-05 3.15845027e-05 2.87121402e-05 3.13717574e-05
      3.16415972e-05 3.00332849e-05 3.00332849e-05 2.40042427e-05
      6.29742090e-06 3.66998211e-06 -4.05057690e-05 -3.70567795e-05
      -3.97163967e-05 -3.97163967e-05 -3.97163967e-05 -3.97163967e-05
      -3.97163967e-05 4.30480941e-06 4.30480941e-06 4.30480941e-06
      4.30480941e-06 0. 0. 2.43128579e-06 2.43128579e-06 -2.81569373e-05
      2.42186943e-05 5.19549440e-06 9.50030426e-06 8.10729034e-06
      7.76315301e-06 1.01944388e-05 1.01944388e-05 5.88962939e-06
      5.88962939e-06 5.88962939e-06 5.88962939e-06 8.98059625e-06
      2.59301578e-05 2.76762657e-05 2.72448287e-05 2.65178478e-05
      2.65178478e-05 2.92103123e-05 2.92103123e-05 2.92103123e-05
      2.40042427e-05 6.29742090e-06 4.01411944e-06 3.51543827e-06
      -3.62009596e-05 -3.97163967e-05 -3.97163967e-05 -3.97163967e-05
      -3.97163967e-05 -3.97163967e-05 -3.97163967e-05 -3.97163967e-05
      4.30480941e-06 4.30480941e-06 4.30480941e-06 0. 2.43128579e-06
      2.43128579e-06 2.43128579e-06 9.90094031e-06 2.48046745e-05
      5.19549440e-06 9.50030426e-06 8.64448339e-06 7.76315301e-06
      1.01944388e-05 1.01944388e-05 5.88962939e-06 5.88962939e-06
      3.01726686e-06 8.98059625e-06 1.58642688e-05 2.70902856e-05
      2.46589989e-05 2.56948733e-05 2.56948733e-05 2.56948733e-05
      2.92103123e-05 2.92103123e-05 1.57773284e-05 6.29742090e-06
      4.01411944e-06 3.66998211e-06 7.82024836e-06 -3.97163967e-05
      -3.97163967e-05 -3.97163967e-05 -3.97163967e-05 -3.97163967e-05
      -3.97163967e-05 -3.97163967e-05 4.30480941e-06 4.30480941e-06
      5.16062983e-06 8.55820304e-07 8.55820304e-07 5.94672429e-06
      5.94672429e-06 5.09090387e-06 9.90094031e-06 2.49592176e-05
      7.85511293e-06 9.50030426e-06 9.50030426e-06 8.58612657e-06
      1.01944388e-05 1.01944388e-05 5.88962939e-06 5.88962939e-06
      8.98059625e-06 8.39461518e-06 2.53441776e-05 2.46589989e-05
      2.48135439e-05 2.56948733e-05 2.56948733e-05 2.83544923e-05
      2.92103123e-05 1.57773284e-05 6.29742090e-06 4.55131294e-06
      7.97479152e-06 7.82024836e-06 7.82024836e-06 -3.97163967e-05
      -3.97163967e-05 -3.97163967e-05 -3.97163967e-05 -3.97163967e-05
      -3.88605768e-05 -3.88605768e-05 5.16062983e-06 7.82024836e-06
      4.05263154e-06 4.05263154e-06 5.94672429e-06 5.94672429e-06
      5.94672429e-06 5.94672429e-06 5.09090387e-06 1.97531481e-05
      7.85511293e-06 5.19549440e-06 9.50030426e-06 1.01944388e-05
      1.01944388e-05 1.01944388e-05 5.88962939e-06 5.88962939e-06
      1.18529588e-05 2.88025203e-05 2.76762657e-05 2.68532931e-05
      2.48135439e-05 2.56948733e-05 2.56948733e-05 2.92103123e-05
      1.80409133e-05 6.29742090e-06 4.55131294e-06 8.51198547e-06
      7.97479152e-06 7.82024836e-06 7.82024836e-06 -3.91792018e-05
      -3.83233819e-05 -3.83233819e-05 -3.83233819e-05 -3.55092197e-05
      -3.55092197e-05 -3.55092197e-05 4.20717561e-06 4.20717561e-06
      4.20717561e-06 4.20717561e-06 6.10126790e-06 6.10126790e-06
      6.10126790e-06 6.10126790e-06 7.96326640e-06 1.26261111e-05
      7.85511293e-06 7.85511293e-06 8.96311030e-06 1.10502597e-05
      1.01944388e-05 1.01944388e-05 5.88962939e-06 1.18529588e-05
      1.18529588e-05 2.88025203e-05 3.05486283e-05 3.05486283e-05
      2.81749471e-05 2.78891675e-05 2.62808553e-05 2.32469829e-05
      6.29742090e-06 4.55131294e-06 8.85612189e-06 8.51198547e-06
      1.37180550e-05 1.37180550e-05 -3.03031520e-05 -3.03031520e-05
      -3.03031520e-05 -3.03031520e-05 -3.03031520e-05 -3.03031520e-05
      -3.03031520e-05 -3.77237848e-05 6.29742090e-06 4.55131294e-06
      4.20717561e-06 5.81548829e-06 6.63846140e-06 6.10126790e-06
      6.10126790e-06 8.97363043e-06 7.96326640e-06 9.01322346e-06
      9.01322346e-06 1.19343740e-05 1.35795653e-05 1.32354280e-05
      1.32025807e-05 1.48108938e-05 1.05060844e-05 1.64694138e-05
      -1.58083003e-05 -8.85612189e-06 -8.85612189e-06 3.51650851e-05
      3.56637647e-05 3.15845027e-05 3.07615301e-05 2.29771431e-05
      1.43530560e-05 1.69117575e-05 1.63257773e-05 1.59816391e-05
      -2.62934591e-05 -2.59493208e-05 -2.59493208e-05 -2.59493208e-05
      -2.59493208e-05 -1.64694138e-05 -1.64694138e-05 -1.64694138e-05
      -2.07742232e-05 -3.77237848e-05 6.29742090e-06 6.29742090e-06
      4.20717561e-06 5.81548829e-06 6.63846140e-06 5.24544748e-06
      5.24544748e-06 8.11781047e-06 8.11781047e-06 8.13189308e-06
      8.47603042e-06 8.47603042e-06 8.92126445e-06 1.17936270e-05
      1.23796081e-05 1.32025807e-05 8.89777129e-06 1.64694138e-05
      -1.06022308e-05 -8.85612189e-06 -8.85612189e-06 -8.85612189e-06
      -8.51198547e-06 -7.82024836e-06 3.62009596e-05 3.88605768e-05
      3.60210615e-05 3.87175569e-05 3.87175569e-05 -5.30364832e-06
      -5.30364832e-06 -5.88962939e-06 -5.88962939e-06 -5.88962939e-06
      -5.88962939e-06 -1.05060844e-05 -1.48108938e-05 -1.48108938e-05
      -1.48108938e-05 6.29742090e-06 6.29742090e-06 5.44160048e-06
      3.69549252e-06 5.78264098e-06 5.78264098e-06 5.78264098e-06
      2.58582963e-06 5.45819194e-06 5.45819194e-06 9.42157931e-06
      7.27607267e-06 4.61645459e-06 8.92126445e-06 8.92126445e-06
      8.92126445e-06 1.17936270e-05 7.48881712e-06 1.48611007e-05
      -8.85612189e-06 -8.85612189e-06 -8.85612189e-06 -8.85612189e-06
      -8.51198547e-06 -7.82024836e-06 -7.82024836e-06 -7.82024836e-06 0.
      0. -8.22972993e-07 -5.30364832e-06 -5.30364832e-06 -5.30364832e-06
      -5.30364832e-06 -5.30364832e-06 -5.88962939e-06 -1.01944388e-05
      -1.01944388e-05 -1.10502597e-05 -1.10502597e-05 1.95379635e-05
      1.00580555e-05 1.00580555e-05 7.26064172e-06 7.73947795e-06
      7.73947795e-06 7.20228445e-06 1.00746465e-05 5.45819194e-06
      5.45819194e-06 5.49778542e-06 5.15364809e-06 4.61645459e-06
      4.61645459e-06 4.61645459e-06 4.61645459e-06 4.61645459e-06
      4.61645459e-06 2.29320558e-05 -1.10504161e-05 -1.10504161e-05
      -8.85612189e-06 -8.85612189e-06 -8.51198547e-06 -8.35744140e-06
      -7.82024836e-06 -7.82024836e-06 -8.55820304e-07 0. 0. 0.
      -2.43128579e-06 -5.30364832e-06 -5.30364832e-06 -6.15946874e-06
      -1.04642786e-05 -1.10502597e-05 -1.10502597e-05 -1.10502597e-05
      2.97741353e-05 6.86124395e-06 6.86124395e-06 6.86124395e-06
      6.72344868e-06 7.20228445e-06 7.04774038e-06 2.43128579e-06
      5.30364832e-06 5.30364832e-06 5.30364832e-06 4.96059192e-06
      4.61645459e-06 4.61645459e-06 4.61645459e-06 4.61645459e-06
      4.61645459e-06 4.61645459e-06 4.61645459e-06 2.00596933e-05
      -1.47457513e-05 -1.18733888e-05 -1.10504161e-05 -9.44210296e-06
      -9.09796654e-06 -8.51198547e-06 -7.82024836e-06 -3.51543827e-06
      -3.51543827e-06 -8.55820304e-07 0. -1.39301369e-06 -1.39301369e-06
      -1.39301369e-06 -6.69666224e-06 -6.69666224e-06 -1.36610897e-05
      -1.42470708e-05 -1.96076835e-05 2.96195922e-05 2.44135226e-05
      1.61866083e-05 6.70669988e-06 6.70669988e-06 2.77542313e-06
      2.43128579e-06 2.43128579e-06 5.30364832e-06 5.30364832e-06
      5.30364832e-06 2.87236253e-06 1.60831280e-06 4.61645459e-06
      4.61645459e-06 4.61645459e-06 4.61645459e-06 4.61645459e-06
      4.61645459e-06 1.05797844e-05 2.00596933e-05 2.40693844e-05
      -1.99518217e-05 -1.99518217e-05 -1.70794592e-05 -1.62564866e-05
      -1.43040361e-05 -1.41494920e-05 -9.84468261e-06 -9.25870154e-06
      -6.59908346e-06 -6.59908346e-06 -6.75362708e-06 -9.41324561e-06
      -9.41324561e-06 -1.47168939e-05 -1.47168939e-05 2.93043122e-05
      2.87183320e-05 2.87183320e-05 2.87183320e-05 2.87183320e-05
      1.41288547e-05 4.64894674e-06 5.91312255e-06 6.73609520e-06
      6.73609520e-06 6.73609520e-06 5.30364832e-06 5.30364832e-06
      5.30364832e-06 2.87236253e-06 4.48067522e-06 1.60831280e-06
      2.87236253e-06 0. 0. 0. 0. 0. 1.54432382e-05 1.94529293e-05
      1.94529293e-05 1.94529293e-05 -2.45682768e-05 -1.99518217e-05
      -1.89989059e-05 -1.65676211e-05 -1.22628107e-05 -1.22628107e-05
      -1.22628107e-05 -1.22628107e-05 -1.16768297e-05 -1.34229376e-05
      -1.87265869e-05 2.52946211e-05 2.49504828e-05 2.43645027e-05
      1.97480476e-05 1.97480476e-05 1.02681397e-05 1.02681397e-05
      4.30480941e-06 4.30480941e-06 5.91312255e-06 6.73609520e-06
      6.73609520e-06 9.60845773e-06 9.60845773e-06 9.60845773e-06
      8.00014550e-06 7.17717194e-06 1.60831280e-06 2.87236253e-06
      1.60831280e-06 0. 0. 0. 0. 0. 0. 0. 1.74610807e-06 1.74610807e-06
      1.74610807e-06 1.74610807e-06 0. 3.44137192e-07 8.00014550e-06
      9.60845773e-06 9.60845773e-06 9.60845773e-06 9.60845773e-06
      9.60845773e-06 4.30480941e-06 4.89079048e-06 4.89079048e-06
      4.30480941e-06 4.30480941e-06 4.30480941e-06 4.30480941e-06
      4.30480941e-06 4.30480941e-06 4.30480941e-06 5.91312255e-06
      6.73609520e-06 6.73609520e-06 9.60845773e-06 9.60845773e-06
      9.60845773e-06 7.17717194e-06 7.17717194e-06 1.60831280e-06
      1.60831280e-06 1.60831280e-06 1.60831280e-06 0. 0. 0. 0. 0. 0. 0.
      0. 0. 0. 0. 0. 4.30480941e-06 4.30480941e-06 9.60845773e-06
      9.60845773e-06 9.60845773e-06 6.73609520e-06 4.30480941e-06
      4.30480941e-06 4.30480941e-06 4.30480941e-06 4.30480941e-06
      4.30480941e-06 4.30480941e-06 4.30480941e-06 4.30480941e-06
      4.30480941e-06 4.30480941e-06 5.91312255e-06 6.73609520e-06
      9.60845773e-06 6.73609520e-06 8.00014550e-06 7.17717194e-06
      7.17717194e-06 0. 1.60831280e-06 0. 0. 0. 0. 0. 0. 0. 0. 0. 0. 0.
      0. 0. 0. 4.30480941e-06 4.30480941e-06 4.30480941e-06
      4.30480941e-06 6.73609520e-06 4.30480941e-06 4.30480941e-06
      4.30480941e-06 4.30480941e-06 4.30480941e-06 4.30480941e-06
      4.30480941e-06 4.30480941e-06 4.30480941e-06 4.30480941e-06
      4.30480941e-06 4.30480941e-06 5.91312255e-06 5.91312255e-06
      5.91312255e-06 5.91312255e-06 7.17717194e-06 7.17717194e-06
      7.17717194e-06</_></support_vectors>
  <uncompressed_sv_total>70</uncompressed_sv_total>
  <uncompressed_support_vectors>
    <_>
      255. 0. 0. 0. 0. 0. 0. 0. 0. 0. 0. 0. 0. 0. 0. 0. 0. 0. 0. 0. 255.
      255. 255. 255. 255. 255. 0. 0. 0. 0. 0. 0. 0. 0. 0. 0. 0. 0. 0. 0.
      255. 0. 0. 0. 0. 0. 0. 0. 0. 0. 0. 0. 0. 0. 0. 0. 0. 0. 0. 0. 255.
      255. 255. 255. 255. 255. 0. 0. 0. 0. 0. 0. 0. 0. 0. 0. 0. 0. 0. 0.
      255. 0. 0. 0. 0. 0. 0. 0. 0. 0. 0. 0. 0. 0. 0. 0. 0. 0. 0. 0. 255.
      255. 255. 255. 255. 255. 0. 0. 0. 0. 0. 0. 0. 0. 0. 0. 0. 0. 0. 0.
      255. 255. 0. 0. 0. 0. 0. 0. 0. 0. 0. 0. 0. 0. 0. 0. 0. 0. 0. 0.
      255. 255. 255. 255. 255. 255. 0. 0. 0. 0. 0. 0. 0. 0. 0. 0. 0. 0.
      0. 0. 255. 255. 0. 0. 0. 0. 0. 0. 0. 0. 0. 0. 0. 0. 0. 0. 0. 0. 0.
      0. 255. 255. 255. 255. 255. 255. 0. 0. 0. 0. 0. 0. 0. 0. 0. 0. 0.
      0. 0. 0. 255. 255. 0. 0. 0. 0. 0. 0. 0. 0. 0. 0. 0. 0. 0. 0. 0. 0.
      0. 0. 255. 255. 255. 255. 255. 255. 0. 0. 0. 0. 0. 0. 0. 0. 0. 0.
      0. 0. 0. 0. 255. 255. 0. 0. 0. 0. 0. 0. 0. 0. 0. 0. 0. 0. 0. 0. 0.
      0. 0. 0. 255. 255. 255. 255. 255. 255. 0. 0. 0. 0. 0. 0. 0. 0. 0.
      0. 0. 0. 0. 0. 255. 255. 0. 0. 0. 0. 0. 0. 0. 0. 0. 0. 0. 0. 0. 0.
      0. 0. 0. 0. 255. 255. 255. 255. 255. 255. 0. 0. 0. 0. 0. 0. 0. 0.
      0. 0. 0. 0. 0. 0. 255. 255. 0. 0. 0. 0. 0. 0. 0. 0. 0. 0. 0. 0. 0.
      0. 0. 0. 0. 0. 255. 255. 255. 255. 255. 255. 0. 0. 0. 0. 0. 0. 0.
      0. 0. 0. 0. 0. 0. 0. 255. 255. 0. 0. 0. 0. 0. 0. 0. 0. 0. 0. 0. 0.
      0. 0. 0. 0. 0. 0. 255. 255. 255. 255. 255. 255. 0. 0. 0. 0. 0. 0.
      0. 0. 0. 0. 0. 0. 0. 0. 255. 255. 0. 0. 0. 0. 0. 0. 0. 0. 0. 0. 0.
      0. 0. 0. 0. 0. 0. 0. 255. 255. 255. 255. 255. 255. 0. 0. 0. 0. 0.
      0. 0. 0. 0. 0. 0. 0. 0. 0. 255. 255. 0. 0. 0. 0. 0. 0. 0. 0. 0. 0.
      0. 0. 0. 0. 0. 0. 0. 0. 255. 255. 255. 255. 255. 255. 0. 0. 0. 0.
      0. 0. 0. 0. 0. 0. 0. 0. 0. 0. 255. 255. 0. 0. 0. 0. 0. 0. 0. 0. 0.
      0. 0. 0. 0. 0. 0. 0. 0. 0. 255. 255. 255. 255. 255. 255. 0. 0. 0.
      0. 0. 0. 0. 0. 0. 0. 0. 0. 0. 0. 255. 255. 0. 0. 0. 0. 0. 0. 0. 0.
      0. 0. 0. 0. 0. 0. 0. 0. 0. 0. 255. 255. 255. 255. 255. 255. 0. 0.
      0. 0. 0. 0. 0. 0. 0. 0. 0. 0. 0. 0. 255. 255. 0. 0. 0. 0. 0. 0. 0.
      0. 0. 0. 0. 0. 0. 0. 0. 0. 0. 0. 255. 255. 255. 255. 255. 255. 0.
      0. 0. 0. 0. 0. 0. 0. 0. 0. 0. 0. 0. 0. 255. 255. 0. 0. 0. 0. 0. 0.
      0. 0. 0. 0. 0. 0. 0. 0. 0. 0. 0. 0. 255. 255. 255. 255. 255. 255.
      0. 0. 0. 0. 0. 0. 0. 0. 0. 0. 0. 0. 0. 0. 255. 255. 0. 0. 0. 0. 0.
      0. 0. 0. 0. 0. 0. 0. 0. 0. 0. 0. 0. 0. 255. 255. 255. 255. 255.
      255. 0. 0. 0. 0. 0. 0. 0. 0. 0. 0. 0. 0. 0. 0. 255. 255. 0. 0. 0.
      0. 0. 0. 0. 0. 0. 0. 0. 0. 0. 0. 0. 0. 0. 0. 255. 255. 255. 255.
      255. 255. 0. 0. 0. 0. 0. 0. 0. 0. 0. 0. 0. 0. 0. 0. 255. 255. 0.
      0. 0. 0. 0. 0. 0. 0. 0. 0. 0. 0. 0. 0. 0. 0. 0. 0. 255. 255. 255.
      255. 255. 255. 0. 0. 0. 0. 0. 0. 0. 0. 0. 0. 0. 0. 0. 0. 255. 255.
      0. 0. 0. 0. 0. 0. 0. 0. 0. 0. 0. 0. 0. 0. 0. 0. 0. 0. 255. 255.
      255. 255. 255. 255. 0. 0. 0. 0. 0. 0. 0. 0. 0. 0. 0. 0. 0. 0. 255.
      255. 255. 0. 0. 0. 0. 0. 0. 0. 0. 0. 0. 0. 0. 0. 0. 0. 0. 0. 255.
      255. 255. 255. 255. 255. 0. 0. 0. 0. 0. 0. 0. 0. 0. 0. 0. 0. 0. 0.
      255. 255. 255. 0. 0. 0. 0. 0. 0. 0. 0. 0. 0. 0. 0. 0. 0. 0. 0. 0.
      255. 255. 255. 255. 255. 255. 0. 0. 0. 0. 0. 0. 0. 0. 0. 0. 0. 0.
      0. 0. 255. 255. 255. 0. 0. 0. 0. 0. 0. 0. 0. 0. 0. 0. 0. 0. 0. 0.
      0. 0. 255. 255. 255. 255. 255. 255. 0. 0. 0. 0. 0. 0. 0. 0. 0. 0.
      0. 0. 0. 0. 255. 255. 255. 0. 0. 0. 0. 0. 0. 0. 0. 0. 0. 0. 0. 0.
      0. 0. 0. 0. 255. 255. 255. 255. 255. 255. 0. 0. 0. 0. 0. 0. 0. 0.
      0. 0. 0. 0. 0. 0. 255. 255. 255. 0. 0. 0. 0. 0. 0. 0. 0. 0. 0. 0.
      0. 0. 0. 0. 0. 0. 255. 255. 255. 255. 255. 255. 0. 0. 0. 0. 0. 0.
      0. 0. 0. 0. 0. 0. 0. 0. 255. 255. 255. 0. 0. 0. 0. 0. 0. 0. 0. 0.
      0. 0. 0. 0. 0. 0. 0. 0. 255. 255. 255. 255. 255. 255. 0. 0. 0. 0.
      0. 0. 0. 0. 0. 0. 0. 0. 0. 0. 255. 255. 255. 0. 0. 0. 0. 0. 0. 0.
      0. 0. 0. 0. 0. 0. 0. 0. 0. 0. 255. 255. 255. 255. 255. 255. 0. 0.
      0. 0. 0. 0. 0. 0. 0. 0. 0. 0. 0. 0. 255. 255. 255. 0. 0. 0. 0. 0.
      0. 0. 0. 0. 0. 0. 0. 0. 0. 0. 0. 0. 255. 255. 255. 255. 255. 255.
      0. 0. 0. 0. 0. 0. 0. 0. 0. 0. 0. 0. 0. 0. 255. 255. 255. 0. 0. 0.
      0. 0. 0. 0. 0. 0. 0. 0. 0. 0. 0. 0. 0. 0. 255. 255. 255. 255. 255.
      255. 0. 0. 0. 0. 0. 0. 0. 0. 0. 0. 0. 0. 0. 0. 255. 255. 255. 0.
      0. 0. 0. 0. 0. 0. 0. 0. 0. 0. 0. 0. 0. 0. 0. 0. 255. 255. 255.
      255. 255. 255. 0. 0. 0. 0. 0. 0. 0. 0. 0. 0. 0. 0. 0. 0. 255. 255.
      255. 0. 0. 0. 0. 0. 0. 0. 0. 0. 0. 0. 0. 0. 0. 0. 0. 0. 255. 255.
      255. 255. 255. 255. 0. 0. 0. 0. 0. 0. 0. 0. 0. 0. 0. 0. 0. 0. 255.
      255. 255. 0. 0. 0. 0. 0. 0. 0. 0. 0. 0. 0. 0. 0. 0. 0. 0. 0. 255.
      255. 255. 255. 255. 255. 0. 0. 0. 0. 0. 0. 0. 0. 0. 0. 0. 0. 0. 0.
      255. 255. 255. 0. 0. 0. 0. 0. 0. 0. 0. 0. 0. 0. 0. 0. 0. 0. 0. 0.
      255. 255. 255. 255. 255. 255. 0. 0. 0. 0. 0. 0. 0. 0. 0. 0. 0. 0.
      0. 0. 255. 255. 255. 0. 0. 0. 0. 0. 0. 0. 0. 0. 0. 0. 0. 0. 0. 0.
      0. 0. 255. 255. 255. 255. 255. 255. 0. 0. 0. 0. 0. 0. 0. 0. 0. 0.
      0. 0. 0. 0. 255. 255. 255. 0. 0. 0. 0. 0. 0. 0. 0. 0. 0. 0. 0. 0.
      0. 0. 0. 0. 255. 255. 255. 255. 255. 255. 0. 0. 0. 0. 0. 0. 0. 0.
      0. 0. 0. 0. 0. 0. 255. 255. 255. 0. 0. 0. 0. 0. 0. 0. 0. 0. 0. 0.
      0. 0. 0. 0. 0. 0. 255. 255. 255. 255. 255. 255. 0. 0. 0. 0. 0. 0.
      0. 0. 0. 0. 0. 0. 0. 0. 255. 255. 255. 0. 0. 0. 0. 0. 0. 0. 0. 0.
      0. 0. 0. 0. 0. 0. 0. 0. 255. 255. 255. 255. 255. 255. 0. 0. 0. 0.
      0. 0. 0. 0. 0. 0. 0. 0. 0. 0. 255. 255. 255. 0. 0. 0. 0. 0. 0. 0.
      0. 0. 0. 0. 0. 0. 0. 0. 0. 0. 255. 255. 255. 255. 255. 255. 0. 0.
      0. 0. 0. 0. 0. 0. 0. 0. 0. 0. 0. 0. 255. 255. 255. 0. 0. 0. 0. 0.
      0. 0. 0. 0. 0. 0. 0. 0. 0. 0. 0. 0. 255. 255. 255. 255. 255. 255.
      0. 0. 0. 0. 0. 0. 0. 0. 0. 0. 0. 0. 0. 0. 255. 255. 255. 0. 0. 0.
      0. 0. 0. 0. 0. 0. 0. 0. 0. 0. 0. 0. 0. 0. 255. 255. 255. 255. 255.
      255. 0. 0. 0. 0. 0. 0. 0. 0. 0. 0. 0. 0. 0. 0.</_>
    <_>
      0. 0. 0. 0. 0. 0. 0. 0. 0. 0. 0. 0. 0. 0. 0. 0. 0. 0. 0. 0. 0. 0.
      0. 0. 0. 0. 0. 0. 0. 0. 0. 0. 0. 0. 0. 0. 0. 0. 0. 0. 0. 0. 0. 0.
      0. 0. 0. 0. 0. 0. 0. 0. 0. 0. 0. 0. 0. 0. 0. 0. 0. 0. 0. 0. 0. 0.
      0. 0. 0. 0. 0. 0. 0. 0. 0. 0. 0. 0. 0. 0. 0. 0. 0. 0. 0. 0. 0. 0.
      0. 0. 0. 0. 0. 0. 0. 0. 0. 0. 0. 0. 0. 0. 0. 0. 0. 0. 0. 0. 0. 0.
      0. 0. 0. 0. 0. 0. 0. 0. 0. 0. 0. 0. 0. 0. 0. 0. 0. 0. 0. 0. 0. 0.
      0. 0. 0. 0. 0. 0. 0. 0. 0. 0. 0. 0. 0. 0. 0. 0. 0. 0. 0. 0. 0. 0.
      0. 0. 0. 0. 0. 0. 0. 0. 0. 0. 0. 0. 0. 0. 0. 0. 0. 0. 0. 0. 0. 0.
      0. 0. 0. 0. 0. 0. 0. 0. 0. 0. 0. 0. 0. 0. 0. 0. 0. 0. 0. 0. 0. 0.
      0. 0. 0. 0. 0. 0. 0. 0. 0. 0. 0. 0. 0. 0. 0. 0. 0. 0. 0. 0. 0. 0.
      0. 0. 0. 0. 0. 0. 0. 0. 0. 0. 0. 0. 0. 0. 0. 0. 0. 0. 0. 0. 0. 0.
      0. 0. 0. 0. 0. 0. 0. 0. 0. 0. 0. 0. 0. 0. 0. 0. 0. 0. 0. 0. 0. 0.
      255. 255. 255. 255. 255. 0. 0. 0. 0. 0. 0. 0. 0. 0. 0. 0. 0. 0. 0.
      0. 0. 0. 0. 0. 0. 0. 0. 0. 0. 0. 0. 0. 0. 0. 0. 0. 0. 0. 255. 255.
      255. 255. 255. 255. 255. 0. 0. 0. 0. 0. 0. 0. 0. 0. 0. 0. 0. 0. 0.
      0. 0. 0. 0. 0. 0. 0. 0. 0. 0. 0. 0. 0. 0. 0. 0. 0. 255. 255. 255.
      255. 255. 255. 255. 255. 255. 0. 0. 0. 0. 0. 0. 0. 0. 0. 0. 0. 0.
      0. 0. 0. 0. 0. 0. 0. 0. 0. 0. 0. 0. 0. 0. 0. 0. 0. 0. 255. 255.
      255. 255. 255. 255. 255. 255. 255. 255. 0. 0. 0. 0. 0. 0. 0. 0. 0.
      0. 0. 0. 0. 0. 0. 0. 0. 0. 0. 0. 0. 0. 0. 0. 0. 0. 0. 0. 255. 255.
      255. 255. 255. 255. 255. 255. 255. 255. 255. 255. 0. 0. 0. 0. 0.
      0. 0. 0. 0. 0. 0. 0. 0. 0. 0. 0. 0. 0. 0. 0. 0. 0. 0. 0. 0. 0.
      255. 255. 255. 255. 255. 255. 255. 255. 255. 255. 255. 255. 255.
      255. 0. 0. 0. 0. 0. 0. 0. 0. 0. 0. 0. 0. 0. 0. 0. 0. 0. 0. 0. 0.
      0. 0. 0. 0. 255. 255. 255. 255. 255. 255. 255. 255. 255. 255. 255.
      255. 255. 255. 255. 255. 255. 0. 0. 0. 0. 0. 0. 0. 0. 0. 0. 0. 0.
      0. 0. 0. 0. 0. 0. 0. 0. 0. 255. 255. 255. 255. 255. 255. 255. 255.
      255. 255. 255. 255. 255. 255. 255. 255. 255. 255. 255. 0. 0. 0. 0.
      0. 0. 0. 0. 0. 0. 0. 0. 0. 0. 0. 0. 0. 0. 0. 255. 255. 255. 255.
      255. 255. 255. 255. 255. 255. 0. 255. 255. 255. 255. 255. 255.
      255. 255. 255. 255. 0. 0. 0. 0. 0. 0. 0. 0. 0. 0. 0. 0. 0. 0. 0.
      0. 0. 0. 255. 255. 255. 255. 255. 255. 255. 255. 255. 0. 0. 0.
      255. 255. 255. 255. 255. 255. 255. 255. 255. 255. 0. 0. 0. 0. 0.
      0. 0. 0. 0. 0. 0. 0. 0. 0. 0. 0. 0. 0. 0. 255. 255. 255. 255. 255.
      255. 0. 0. 0. 0. 0. 255. 255. 255. 255. 255. 255. 255. 255. 255.
      255. 0. 0. 0. 0. 0. 0. 0. 0. 0. 0. 0. 0. 0. 0. 0. 0. 0. 0. 0. 255.
      255. 255. 255. 0. 0. 0. 0. 0. 0. 0. 255. 255. 255. 255. 255. 255.
      255. 255. 255. 255. 0. 0. 0. 0. 0. 0. 0. 0. 0. 0. 0. 0. 0. 0. 0.
      0. 0. 0. 0. 255. 255. 0. 0. 0. 0. 0. 0. 0. 0. 0. 0. 255. 255. 255.
      255. 255. 255. 255. 255. 255. 0. 0. 0. 0. 0. 0. 0. 0. 0. 0. 0. 0.
      0. 0. 0. 0. 0. 0. 0. 0. 0. 0. 0. 0. 0. 0. 0. 0. 0. 0. 0. 255. 255.
      255. 255. 255. 255. 255. 255. 255. 0. 0. 0. 0. 0. 0. 0. 0. 0. 0.
      0. 0. 0. 0. 0. 0. 0. 0. 0. 0. 0. 0. 0. 0. 0. 0. 0. 0. 0. 0. 0.
      255. 255. 255. 255. 255. 255. 255. 255. 255. 255. 0. 0. 0. 0. 0.
      0. 0. 0. 0. 0. 0. 0. 0. 0. 0. 0. 0. 0. 0. 0. 0. 0. 0. 0. 0. 0. 0.
      0. 0. 0. 255. 255. 255. 255. 255. 255. 255. 255. 255. 255. 0. 0.
      0. 0. 0. 0. 0. 0. 0. 0. 0. 0. 0. 0. 0. 0. 0. 0. 0. 0. 0. 0. 0. 0.
      0. 0. 0. 0. 0. 0. 255. 255. 255. 255. 255. 255. 255. 255. 255.
      255. 0. 0. 0. 0. 0. 0. 0. 0. 0. 0. 0. 0. 0. 0. 0. 0. 0. 0. 0. 0.
      0. 0. 0. 0. 0. 0. 0. 0. 0. 0. 255. 255. 255. 255. 255. 255. 255.
      255. 255. 255. 0. 0. 0. 0. 0. 0. 0. 0. 0. 0. 0. 0. 0. 0. 0. 0. 0.
      0. 0. 0. 0. 0. 0. 0. 0. 0. 0. 0. 0. 0. 0. 255. 255. 255. 255. 255.
      255. 255. 255. 255. 0. 0. 0. 0. 0. 0. 0. 0. 0. 0. 0. 0. 0. 0. 0.
      0. 0. 0. 0. 0. 0. 0. 0. 0. 0. 0. 0. 0. 0. 0. 0. 255. 255. 255.
      255. 255. 255. 255. 255. 255. 0. 0. 0. 0. 0. 0. 0. 0. 0. 0. 0. 0.
      0. 0. 0. 0. 0. 0. 0. 0. 0. 0. 0. 0. 0. 0. 0. 0. 0. 0. 0. 255. 255.
      255. 255. 255. 255. 255. 255. 255. 0. 0. 0. 0. 0. 0. 0. 0. 0. 0.
      0. 0. 0. 0. 0. 0. 0. 0. 0. 0. 0. 0. 0. 0. 0. 0. 0. 0. 0. 0. 0.
      255. 255. 255. 255. 255. 255. 255. 255. 255. 0. 0. 0. 0. 0. 0. 0.
      0. 0. 0. 0. 0. 0. 0. 0. 0. 0. 0. 0. 0. 0. 0. 0. 0. 0. 0. 0. 0. 0.
      0. 0. 255. 255. 255. 255. 255. 255. 255. 255. 255. 0. 0. 0. 0. 0.
      0. 0. 0. 0. 0. 0. 0. 0. 0. 0. 0. 0. 0. 0. 0. 0. 0. 0. 0. 0. 0. 0.
      0. 0. 0. 0. 255. 255. 255. 255. 255. 255. 255. 255. 255. 255. 0.
      0. 0. 0. 0. 0. 0. 0. 0. 0. 0. 0. 0. 0. 0. 0. 0. 0. 0. 0. 0. 0. 0.
      0. 0. 0. 0. 0. 0. 0. 255. 255. 255. 255. 255. 255. 255. 255. 0. 0.
      0. 0. 0. 0. 0. 0. 0. 0. 0. 0. 0. 0. 0. 0. 0. 0. 0. 0. 0. 0. 0. 0.
      0. 0. 0. 0. 0. 0. 0. 0. 255. 255. 255. 255. 255. 0. 0. 0. 0. 0. 0.
      0. 0. 0. 0. 0. 0. 0. 0. 0. 0. 0. 0. 0. 0. 0. 0. 0. 0. 0. 0. 0. 0.
      0. 0. 0. 0. 0. 0. 0. 0. 255. 0. 0. 0. 0. 0. 0. 0. 0. 0. 0. 0. 0.
      0. 0. 0. 0. 0. 0. 0. 0. 0. 0. 0. 0. 0. 0. 0. 0. 0. 0. 0. 0. 0. 0.
      0. 0. 0. 0. 0. 0. 0. 0. 0. 0. 0. 0. 0. 0. 0. 0. 0. 0. 0. 0. 0. 0.
      0. 0. 0. 0. 0. 0. 0. 0. 0. 0. 0. 0. 0. 0. 0. 0. 0. 0. 0. 0. 0. 0.
      0. 0. 0. 0. 0. 0. 0. 0. 0. 0. 0. 0. 0. 0. 0. 0. 0. 0. 0. 0. 0. 0.
      0. 0. 0. 0. 0. 0. 0. 0. 0. 0. 0. 0. 0. 0. 0. 0. 0. 0. 0. 0. 0. 0.
      0. 0. 0. 0. 0. 0. 0. 0. 0. 0. 0. 0. 0. 0. 0. 0. 0. 0. 0. 0. 0. 0.
      0. 0. 0. 0. 0. 0. 0. 0. 0. 0. 0. 0. 0. 0. 0. 0. 0. 0. 0. 0. 0. 0.
      0. 0. 0. 0. 0. 0. 0. 0. 0. 0. 0. 0. 0. 0. 0. 0. 0. 0. 0. 0. 0. 0.
      0. 0. 0. 0. 0. 0. 0. 0. 0. 0. 0. 0. 0. 0. 0. 0. 0. 0. 0. 0. 0. 0.
      0. 0. 0. 0. 0. 0. 0. 0. 0. 0. 0. 0. 0. 0. 0. 0. 0. 0. 0. 0. 0. 0.
      0. 0. 0. 0. 0. 0. 0. 0. 0. 0. 0. 0. 0. 0. 0. 0. 0. 0. 0. 0. 0. 0.
      0. 0. 0. 0. 0. 0. 0. 0. 0. 0. 0. 0. 0. 0. 0. 0. 0. 0. 0. 0. 0. 0.
      0. 0. 0. 0. 0. 0. 0. 0. 0. 0. 0. 0. 0. 0. 0. 0. 0. 0. 0. 0.</_>
    <_>
      0. 0. 0. 255. 255. 255. 0. 0. 0. 0. 0. 0. 0. 0. 0. 0. 0. 0. 0. 0.
      0. 0. 0. 0. 0. 0. 0. 0. 0. 0. 0. 0. 0. 0. 0. 0. 0. 0. 0. 0. 0. 0.
      0. 0. 0. 0. 0. 0. 0. 0. 0. 0. 0. 0. 0. 255. 0. 0. 0. 0. 0. 0. 0.
      0. 0. 0. 0. 255. 0. 0. 0. 0. 0. 0. 0. 0. 0. 0. 0. 0. 0. 0. 0. 0.
      0. 0. 0. 0. 0. 0. 0. 0. 0. 0. 0. 0. 255. 0. 0. 0. 0. 0. 0. 0. 0.
      0. 0. 255. 0. 0. 0. 0. 0. 0. 0. 0. 0. 0. 0. 0. 0. 0. 0. 0. 0. 0.
      0. 0. 0. 0. 0. 0. 0. 0. 0. 0. 0. 0. 0. 0. 0. 0. 0. 0. 0. 0. 0. 0.
      0. 0. 0. 0. 0. 0. 0. 0. 0. 0. 0. 0. 0. 0. 0. 0. 0. 0. 0. 0. 0. 0.
      0. 0. 0. 0. 0. 0. 0. 0. 255. 255. 0. 0. 0. 0. 0. 0. 0. 0. 0. 0. 0.
      0. 0. 0. 0. 0. 0. 0. 0. 0. 0. 0. 0. 0. 0. 0. 0. 0. 0. 0. 0. 0.
      255. 255. 255. 255. 255. 255. 0. 0. 0. 0. 0. 0. 0. 0. 0. 0. 0. 0.
      0. 0. 0. 0. 0. 0. 0. 0. 0. 0. 0. 0. 0. 0. 0. 0. 255. 255. 255.
      255. 255. 255. 255. 0. 0. 0. 0. 0. 0. 0. 0. 0. 0. 0. 0. 0. 0. 0.
      0. 0. 0. 0. 0. 0. 0. 0. 0. 0. 0. 0. 0. 255. 255. 255. 255. 255.
      255. 0. 0. 0. 0. 255. 0. 0. 0. 0. 0. 0. 0. 0. 0. 0. 0. 0. 0. 0. 0.
      0. 255. 255. 0. 0. 0. 0. 0. 0. 0. 0. 0. 0. 255. 0. 0. 0. 0. 0. 0.
      0. 0. 0. 0. 0. 0. 0. 0. 0. 0. 0. 0. 0. 0. 0. 0. 255. 255. 255.
      255. 255. 255. 255. 0. 0. 0. 0. 0. 0. 0. 0. 0. 0. 0. 0. 0. 0. 0.
      0. 0. 0. 0. 0. 0. 0. 0. 0. 0. 0. 0. 0. 0. 0. 0. 255. 255. 255.
      255. 255. 255. 255. 255. 255. 255. 0. 0. 0. 0. 0. 0. 0. 0. 0. 0.
      0. 0. 0. 0. 0. 0. 0. 0. 0. 0. 0. 0. 0. 0. 0. 0. 0. 0. 255. 255.
      255. 255. 255. 255. 255. 255. 255. 255. 255. 255. 0. 0. 0. 0. 0.
      0. 0. 0. 0. 0. 0. 0. 0. 0. 0. 0. 0. 0. 0. 0. 0. 0. 0. 0. 0. 255.
      255. 255. 255. 255. 255. 255. 255. 255. 255. 255. 255. 255. 255.
      255. 0. 0. 0. 0. 0. 0. 0. 0. 0. 0. 0. 0. 0. 0. 0. 0. 0. 0. 0. 0.
      0. 0. 0. 255. 255. 255. 255. 255. 255. 255. 255. 255. 255. 255.
      255. 255. 255. 255. 255. 255. 0. 0. 0. 0. 0. 0. 0. 0. 0. 0. 0. 0.
      0. 0. 0. 0. 0. 0. 0. 0. 255. 255. 255. 255. 255. 255. 255. 255.
      255. 255. 255. 255. 255. 255. 255. 255. 255. 255. 255. 255. 0. 0.
      0. 0. 0. 0. 0. 0. 0. 0. 0. 0. 0. 0. 0. 0. 0. 255. 255. 255. 255.
      255. 255. 255. 255. 255. 255. 255. 255. 255. 255. 255. 255. 255.
      255. 255. 255. 255. 255. 255. 0. 0. 0. 0. 0. 0. 0. 0. 0. 0. 0. 0.
      0. 0. 0. 0. 255. 255. 255. 255. 255. 255. 255. 255. 255. 255. 255.
      0. 0. 255. 255. 255. 255. 255. 255. 255. 255. 255. 255. 255. 255.
      0. 0. 0. 0. 0. 0. 0. 0. 0. 0. 0. 0. 0. 0. 0. 255. 255. 255. 255.
      255. 255. 255. 255. 255. 0. 0. 0. 0. 255. 255. 255. 255. 255. 255.
      255. 255. 255. 255. 255. 255. 0. 0. 0. 0. 0. 0. 0. 0. 0. 0. 0. 0.
      0. 0. 0. 255. 255. 255. 255. 255. 255. 0. 0. 0. 0. 0. 0. 0. 255.
      255. 255. 255. 255. 255. 255. 255. 255. 255. 255. 255. 0. 0. 0. 0.
      0. 0. 0. 0. 0. 0. 0. 0. 0. 0. 0. 255. 255. 255. 0. 0. 0. 0. 0. 0.
      0. 0. 0. 0. 255. 255. 255. 255. 255. 255. 255. 255. 255. 255. 255.
      255. 0. 0. 0. 0. 0. 0. 0. 0. 0. 0. 0. 0. 0. 0. 0. 0. 0. 0. 0. 0.
      0. 0. 0. 0. 0. 0. 0. 0. 255. 255. 255. 255. 255. 255. 255. 255.
      255. 255. 255. 255. 0. 0. 0. 0. 0. 0. 0. 0. 0. 0. 0. 0. 0. 0. 0.
      0. 0. 0. 0. 0. 0. 0. 0. 0. 0. 0. 0. 0. 0. 255. 255. 255. 255. 255.
      255. 255. 255. 255. 255. 255. 255. 0. 0. 0. 0. 0. 0. 0. 0. 0. 0.
      0. 0. 0. 0. 0. 0. 0. 0. 0. 0. 0. 0. 0. 0. 0. 0. 0. 0. 255. 255.
      255. 255. 255. 255. 255. 255. 255. 255. 255. 255. 0. 0. 0. 0. 0.
      0. 0. 0. 0. 0. 0. 0. 0. 0. 0. 0. 0. 0. 0. 0. 0. 0. 0. 0. 0. 0. 0.
      0. 255. 255. 255. 255. 255. 255. 255. 255. 255. 255. 255. 255. 0.
      0. 0. 0. 0. 0. 0. 0. 0. 0. 0. 0. 0. 0. 0. 0. 0. 0. 0. 0. 0. 0. 0.
      0. 0. 0. 0. 0. 255. 255. 255. 255. 255. 255. 255. 255. 255. 255.
      255. 255. 0. 0. 0. 0. 0. 0. 0. 0. 0. 0. 0. 0. 0. 0. 0. 0. 0. 0. 0.
      0. 0. 0. 0. 0. 0. 0. 0. 0. 255. 255. 255. 255. 255. 255. 255. 255.
      255. 255. 255. 255. 0. 0. 0. 0. 0. 0. 0. 0. 0. 0. 0. 0. 0. 0. 0.
      0. 0. 0. 0. 0. 0. 0. 0. 0. 0. 0. 0. 0. 0. 255. 255. 255. 255. 255.
      255. 255. 255. 255. 255. 255. 0. 0. 0. 0. 0. 0. 0. 0. 0. 0. 0. 0.
      0. 0. 0. 0. 0. 0. 0. 0. 0. 0. 0. 0. 0. 0. 0. 0. 0. 255. 255. 255.
      255. 255. 255. 255. 255. 255. 255. 255. 255. 0. 0. 0. 0. 0. 0. 0.
      0. 0. 0. 0. 0. 0. 0. 0. 0. 0. 0. 0. 0. 0. 0. 0. 0. 0. 0. 0. 0.
      255. 255. 255. 255. 255. 255. 255. 255. 255. 255. 255. 255. 0. 0.
      0. 0. 0. 0. 0. 0. 0. 0. 0. 0. 0. 0. 0. 0. 0. 0. 0. 0. 0. 0. 0. 0.
      0. 0. 0. 0. 255. 255. 255. 255. 255. 255. 255. 255. 255. 255. 255.
      255. 0. 0. 0. 0. 0. 0. 0. 0. 0. 0. 0. 0. 0. 0. 0. 0. 0. 0. 0. 0.
      0. 0. 0. 0. 0. 0. 0. 0. 255. 255. 255. 255. 255. 255. 255. 255.
      255. 255. 0. 0. 0. 0. 0. 0. 0. 0. 0. 0. 0. 0. 0. 0. 0. 0. 0. 0. 0.
      0. 0. 0. 0. 0. 0. 0. 0. 0. 0. 0. 255. 255. 255. 255. 255. 255. 0.
      0. 0. 0. 0. 0. 0. 0. 0. 0. 0. 255. 0. 0. 0. 0. 0. 0. 0. 0. 0. 0.
      0. 0. 0. 0. 0. 0. 0. 0. 0. 0. 0. 0. 0. 0. 0. 0. 0. 0. 0. 0. 0. 0.
      0. 0. 0. 255. 255. 255. 255. 255. 0. 0. 0. 0. 0. 0. 0. 0. 0. 0. 0.
      0. 0. 0. 0. 0. 0. 0. 0. 0. 0. 0. 0. 0. 0. 0. 0. 0. 0. 0. 0. 255.
      255. 255. 255. 255. 255. 255. 255. 255. 0. 0. 0. 0. 0. 0. 0. 0. 0.
      0. 0. 0. 0. 0. 0. 0. 0. 0. 0. 0. 0. 0. 0. 0. 0. 0. 0. 0. 0. 255.
      255. 255. 255. 255. 255. 255. 255. 255. 255. 255. 0. 0. 0. 0. 0.
      0. 0. 0. 0. 0. 0. 0. 0. 0. 0. 0. 0. 0. 0. 0. 0. 0. 0. 0. 0. 0.
      255. 255. 255. 0. 255. 255. 255. 255. 255. 255. 255. 255. 255.
      255. 0. 0. 0. 0. 0. 0. 0. 0. 0. 0. 0. 0. 0. 0. 0. 0. 0. 0. 0. 0.
      0. 0. 0. 0. 0. 255. 0. 255. 255. 0. 255. 255. 255. 255. 255. 255.
      255. 255. 255. 255. 0. 0. 0. 0. 0. 0. 0. 0. 0. 0. 0. 0. 0. 0. 0.
      0. 0. 0. 0. 0. 0. 0. 0. 0. 0. 0. 0. 0. 0. 0. 0. 0. 0. 0. 0. 0. 0.
      0. 255. 0. 0. 0. 0. 0. 0. 0. 0. 0. 0. 0. 0. 0. 0. 0. 0. 0. 255. 0.
      0. 0. 0. 0. 0. 0. 0. 0. 0. 0. 0. 0. 0. 0. 255. 255. 255. 0. 255.
      255. 0. 0. 0. 0. 0. 0. 0. 0. 0. 0. 0. 255. 255. 255. 255. 0. 255.
      0. 0. 255. 0. 0. 0. 0. 0. 0. 0. 0. 255. 0. 255. 0. 0. 0. 255. 0.
      0. 255. 0. 0. 255. 0. 0. 0. 0. 0. 0. 0. 255. 255. 255. 255. 255.
      255. 255. 255. 255. 0. 255. 255. 0. 255. 0. 0. 0. 0. 0. 0. 0. 0.
      255. 255. 0. 255. 255. 255. 0. 255. 255. 255. 0. 255.</_>
    <_>
      0. 0. 0. 0. 0. 0. 0. 0. 0. 0. 0. 0. 0. 0. 0. 0. 0. 0. 0. 0. 0. 0.
      0. 0. 0. 0. 0. 0. 0. 0. 0. 0. 0. 0. 0. 0. 0. 0. 0. 0. 0. 0. 0. 0.
      0. 0. 0. 0. 0. 0. 0. 0. 0. 0. 0. 0. 0. 0. 0. 0. 0. 0. 0. 0. 0. 0.
      0. 0. 0. 0. 0. 0. 0. 0. 0. 0. 0. 0. 0. 0. 0. 0. 0. 0. 0. 0. 0. 0.
      0. 0. 0. 0. 0. 0. 0. 0. 0. 0. 0. 0. 0. 0. 0. 0. 0. 0. 0. 0. 0. 0.
      0. 0. 0. 0. 0. 0. 0. 0. 0. 0. 0. 0. 0. 0. 0. 0. 0. 0. 0. 0. 0. 0.
      0. 0. 0. 0. 0. 0. 0. 0. 0. 0. 0. 0. 0. 0. 0. 0. 0. 0. 0. 0. 0. 0.
      0. 0. 0. 0. 0. 0. 0. 0. 0. 0. 0. 0. 0. 0. 0. 0. 0. 0. 0. 0. 0. 0.
      0. 0. 0. 0. 0. 0. 0. 0. 0. 0. 0. 0. 0. 0. 0. 0. 0. 0. 0. 0. 0. 0.
      0. 0. 0. 0. 0. 0. 0. 0. 0. 0. 0. 0. 0. 0. 0. 0. 0. 0. 0. 0. 0. 0.
      0. 0. 0. 0. 0. 0. 0. 0. 0. 0. 0. 0. 0. 0. 0. 0. 0. 0. 0. 0. 0. 0.
      0. 0. 0. 0. 0. 0. 0. 0. 0. 0. 0. 0. 0. 0. 0. 0. 0. 0. 0. 0. 0. 0.
      0. 0. 255. 255. 255. 255. 0. 0. 0. 0. 0. 0. 0. 0. 0. 0. 0. 0. 0.
      0. 0. 0. 0. 0. 0. 0. 0. 0. 0. 0. 0. 0. 0. 0. 0. 0. 0. 0. 255. 255.
      255. 255. 255. 255. 255. 255. 0. 0. 0. 0. 0. 0. 0. 0. 0. 0. 0. 0.
      0. 0. 0. 0. 0. 0. 0. 0. 0. 0. 0. 0. 0. 0. 0. 0. 0. 0. 0. 255. 255.
      255. 255. 255. 255. 255. 255. 255. 0. 0. 0. 0. 0. 0. 0. 0. 0. 0.
      0. 0. 0. 0. 0. 0. 0. 0. 0. 0. 0. 0. 0. 0. 0. 0. 0. 0. 0. 255. 255.
      255. 255. 255. 255. 255. 255. 255. 255. 255. 0. 0. 0. 0. 0. 0. 0.
      0. 0. 0. 0. 0. 0. 0. 0. 0. 0. 0. 0. 0. 0. 0. 0. 0. 0. 0. 0. 255.
      255. 255. 255. 255. 255. 255. 255. 255. 255. 255. 255. 255. 0. 0.
      0. 0. 0. 0. 0. 0. 0. 0. 0. 0. 0. 0. 0. 0. 0. 0. 0. 0. 0. 0. 0. 0.
      0. 255. 255. 255. 255. 255. 255. 255. 255. 255. 255. 255. 255.
      255. 255. 255. 0. 0. 0. 0. 0. 0. 0. 0. 0. 0. 0. 0. 0. 0. 0. 0. 0.
      0. 0. 0. 0. 0. 0. 255. 255. 255. 255. 255. 255. 255. 255. 255.
      255. 255. 255. 255. 255. 255. 255. 255. 255. 0. 0. 0. 0. 0. 0. 0.
      0. 0. 0. 0. 0. 0. 0. 0. 0. 0. 0. 0. 0. 255. 255. 255. 255. 255.
      255. 255. 255. 255. 255. 255. 255. 255. 255. 255. 255. 255. 255.
      255. 255. 0. 0. 0. 0. 0. 0. 0. 0. 0. 0. 0. 0. 0. 0. 0. 0. 0. 0.
      255. 255. 255. 255. 255. 255. 255. 255. 255. 255. 0. 0. 255. 255.
      255. 255. 255. 255. 255. 255. 255. 255. 0. 0. 0. 0. 0. 0. 0. 0. 0.
      0. 0. 0. 0. 0. 0. 0. 0. 255. 255. 255. 255. 255. 255. 255. 255.
      255. 0. 0. 0. 0. 255. 255. 255. 255. 255. 255. 255. 255. 255. 255.
      0. 0. 0. 0. 0. 0. 0. 0. 0. 0. 0. 0. 0. 0. 0. 0. 0. 255. 255. 255.
      255. 255. 255. 255. 0. 0. 0. 0. 0. 0. 255. 255. 255. 255. 255.
      255. 255. 255. 255. 255. 0. 0. 0. 0. 0. 0. 0. 0. 0. 0. 0. 0. 0. 0.
      0. 0. 0. 255. 255. 255. 255. 255. 0. 0. 0. 0. 0. 0. 0. 0. 255.
      255. 255. 255. 255. 255. 255. 255. 255. 255. 0. 0. 0. 0. 0. 0. 0.
      0. 0. 0. 0. 0. 0. 0. 0. 0. 0. 0. 255. 255. 0. 0. 0. 0. 0. 0. 0. 0.
      0. 0. 255. 255. 255. 255. 255. 255. 255. 255. 255. 255. 0. 0. 0.
      0. 0. 0. 0. 0. 0. 0. 0. 0. 0. 0. 0. 0. 0. 0. 0. 0. 0. 0. 0. 0. 0.
      0. 0. 0. 0. 0. 255. 255. 255. 255. 255. 255. 255. 255. 255. 255.
      255. 0. 0. 0. 0. 0. 0. 0. 0. 0. 0. 0. 0. 0. 0. 0. 0. 0. 0. 0. 0.
      0. 0. 0. 0. 0. 0. 0. 0. 0. 255. 255. 255. 255. 255. 255. 255. 255.
      255. 255. 255. 0. 0. 0. 0. 0. 0. 0. 0. 0. 0. 0. 0. 0. 0. 0. 0. 0.
      0. 0. 0. 0. 0. 0. 0. 0. 0. 0. 0. 0. 0. 255. 255. 255. 255. 255.
      255. 255. 255. 255. 255. 0. 0. 0. 0. 0. 0. 0. 0. 0. 0. 0. 0. 0. 0.
      0. 0. 0. 0. 0. 0. 0. 0. 0. 0. 0. 0. 0. 0. 0. 0. 255. 255. 255.
      255. 255. 255. 255. 255. 255. 255. 0. 0. 0. 0. 0. 0. 0. 0. 0. 0.
      0. 0. 0. 0. 0. 0. 0. 0. 0. 0. 0. 0. 0. 0. 0. 0. 0. 0. 0. 0. 255.
      255. 255. 255. 255. 255. 255. 255. 255. 255. 0. 0. 0. 0. 0. 0. 0.
      0. 0. 0. 0. 0. 0. 0. 0. 0. 0. 0. 0. 0. 0. 0. 0. 0. 0. 0. 0. 0. 0.
      0. 255. 255. 255. 255. 255. 255. 255. 255. 255. 255. 0. 0. 0. 0.
      0. 0. 0. 0. 0. 0. 0. 0. 0. 0. 0. 0. 0. 0. 0. 0. 0. 0. 0. 0. 0. 0.
      0. 0. 0. 0. 255. 255. 255. 255. 255. 255. 255. 255. 255. 255. 0.
      0. 0. 0. 0. 0. 0. 0. 0. 0. 0. 0. 0. 0. 0. 0. 0. 0. 0. 0. 0. 0. 0.
      0. 0. 0. 0. 0. 0. 0. 255. 255. 255. 255. 255. 255. 255. 255. 255.
      255. 0. 0. 0. 0. 0. 0. 0. 0. 0. 0. 0. 0. 0. 0. 0. 0. 0. 0. 0. 0.
      0. 0. 0. 0. 0. 0. 0. 0. 0. 0. 0. 255. 255. 255. 255. 255. 255.
      255. 255. 255. 255. 0. 0. 0. 0. 0. 0. 0. 0. 0. 0. 0. 0. 0. 0. 0.
      0. 0. 0. 0. 0. 0. 0. 0. 0. 0. 0. 0. 0. 0. 0. 255. 255. 255. 255.
      255. 255. 255. 255. 255. 255. 0. 0. 0. 0. 0. 0. 0. 0. 0. 0. 0. 0.
